//<![CDATA[
//72.89
// a few things don't have var in front of them - they update already existing variables the game needs
lanesSide = 1;//1
patchesAhead = 1;//4
patchesBehind = 3;//3
trainIterations = 20000;//20,000 is best

// the number of other autonomous vehicles controlled by your network
otherAgents = 10; // max of 10

var num_inputs = (lanesSide * 2 + 1) * (patchesAhead + patchesBehind);
var num_actions = 5;
var temporal_window = 3;
var network_size = num_inputs * temporal_window + num_actions * temporal_window + num_inputs;

var layer_defs = [];
layer_defs.push({type:'input', out_sx:1, out_sy:1, out_depth:network_size});
layer_defs.push({type:'fc', num_neurons: 100, activation:'relu'});//70
layer_defs.push({type:'fc', num_neurons: 50, activation:'relu'});
layer_defs.push({type:'regression', num_neurons:num_actions});


var tdtrainer_options = {learning_rate: 0.003,momentum: 0.0,batch_size: 64,
l2_decay: 0.01
};

var opt = {};
opt.temporal_window = temporal_window;
opt.experience_size = 3000;
opt.start_learn_threshold = 500;
opt.gamma = 0.7;
opt.learning_steps_total = 20000;
opt.learning_steps_burnin = 3000;
opt.epsilon_min = 0.05;
opt.epsilon_test_time = 0.05;
opt.layer_defs = layer_defs;
opt.tdtrainer_options = tdtrainer_options;

brain = new deepqlearn.Brain(num_inputs, num_actions, opt);

learn = function (state, lastReward) {
brain.backward(lastReward);
var action = brain.forward(state);

draw_net();
draw_stats();

return action;
}

//]]>
/*###########*/
if (brain) {
brain.value_net.fromJSON({"layers":[{"out_depth":63,"out_sx":1,"out_sy":1,"layer_type":"input"},{"out_depth":100,"out_sx":1,"out_sy":1,"layer_type":"fc","num_inputs":63,"l1_decay_mul":0,"l2_decay_mul":1,"filters":[{"sx":1,"sy":1,"depth":63,"w":{"0":0.06493978180699185,"1":-0.23662552781307317,"2":-0.09711573517581382,"3":-0.09481332661631513,"4":0.08951020765197433,"5":-0.00673834305378621,"6":-0.05338749566849702,"7":-0.08234098324741723,"8":-0.11609007816890933,"9":-0.07213009997414381,"10":-0.11125601527440367,"11":-0.0014261212973177674,"12":0.04251848390764739,"13":0.014513506295862243,"14":-0.01380390256815054,"15":-0.18882358946546007,"16":-0.1023887132717536,"17":0.020662028686740882,"18":-0.09170271079526247,"19":0.04238911170936299,"20":0.11737152858530293,"21":-0.12817947442796995,"22":-0.33707293802115335,"23":-0.07889377470624334,"24":0.08623240186843013,"25":-0.28148144120073326,"26":-0.13826885713659956,"27":-0.2520006647473706,"28":-0.18744485028852917,"29":0.21975295727354507,"30":-0.054807908842372945,"31":-0.10026141978471635,"32":0.08823698441510822,"33":-0.24848056163347948,"34":0.03288769628986021,"35":0.09620885313504984,"36":0.11314331845202201,"37":0.06834472114340803,"38":0.013503083791648746,"39":0.24240624362535795,"40":-0.18052031008534172,"41":0.05610604049253386,"42":-0.15912906929260795,"43":0.046598461772745035,"44":0.04085572743508273,"45":-0.025691238031325322,"46":0.1868161529123385,"47":-0.11341756140249062,"48":-0.3395071217635084,"49":0.10857073054650494,"50":0.06601363599791085,"51":0.10192137929788683,"52":-0.17520951565441625,"53":-0.03565888129562972,"54":-0.11068874868451732,"55":-0.03199471867371762,"56":0.08163966270041359,"57":-0.10557104131342489,"58":-0.0003423612160661525,"59":0.11459231900039356,"60":-0.0656870551663655,"61":-0.09315809704879108,"62":0.09530056732109467}},{"sx":1,"sy":1,"depth":63,"w":{"0":0.17238687803420885,"1":-0.011549584958981729,"2":-0.24969476855582315,"3":-0.07788456877704406,"4":-0.12012029235667733,"5":-0.003499343006933293,"6":0.029695728949012443,"7":-0.2916759612798574,"8":0.03361767787895537,"9":0.20053135041100062,"10":-0.07174379152468163,"11":0.056367851636471414,"12":0.07895978818672361,"13":-0.030764366650217694,"14":-0.04660239385367642,"15":-0.058558098674181894,"16":-0.22442276085077376,"17":0.006038556631587773,"18":-0.08718023462211355,"19":-0.013645397223843664,"20":-0.0610900836678894,"21":-0.004196145715464985,"22":-0.03458980839917248,"23":-0.07186014230689876,"24":-0.17088947763506485,"25":0.011572132514053828,"26":-0.1318356090541985,"27":0.0333956554880875,"28":0.05444794495423341,"29":0.04445263548164013,"30":-0.22261018366888033,"31":0.08798872495332126,"32":-0.10742959532121449,"33":0.25431587946588197,"34":0.03868649676555827,"35":-0.12479015612719634,"36":0.1851844999118906,"37":-0.20038622611652604,"38":-0.29470679973895536,"39":0.00700809199131321,"40":-0.06010135286098126,"41":-0.18791392358411327,"42":-0.18127098367667902,"43":0.0430546421179821,"44":0.14959796473706663,"45":-0.05301350156562292,"46":-0.04277810746122775,"47":0.04346537239310683,"48":0.08229977298531807,"49":0.3600243391946698,"50":-0.08523837645457981,"51":-0.1995214315958472,"52":0.12715096955645175,"53":-0.07738570250587848,"54":-0.11165658780598876,"55":0.1507437187582756,"56":-0.12802921970630896,"57":-0.021889857546868435,"58":-0.08801998574105317,"59":-0.045042744544347826,"60":-0.094220641794164,"61":0.14191107961073582,"62":-0.10664267200056235}},{"sx":1,"sy":1,"depth":63,"w":{"0":-0.07843954438582211,"1":0.02436296974545133,"2":0.11643320730505628,"3":0.21631449941834352,"4":0.05928656182657589,"5":-0.10312121980713138,"6":0.04444369545598843,"7":0.03842769329481104,"8":0.0036925404727454255,"9":-0.02942297441863446,"10":0.21510019063869462,"11":-0.19158814791442239,"12":-0.2937421020875594,"13":0.12334427735657742,"14":-0.16272246010534458,"15":-0.05643966750782359,"16":-0.09306052279403648,"17":-0.028881772469013446,"18":-0.07215322136441725,"19":0.26445305234311156,"20":0.1662814233246129,"21":-0.028498601980791544,"22":0.21585994566184075,"23":0.01867830486701514,"24":-0.03801543824269322,"25":-0.007129862555008621,"26":0.21620018181147332,"27":-0.056495258451619075,"28":0.06087862858488102,"29":-0.2438088882471483,"30":0.039729676833908475,"31":-0.16350984375867558,"32":-0.24501461181904927,"33":0.05126388039541765,"34":0.05124647835168421,"35":0.0702563764810621,"36":0.17644126679441344,"37":0.01112375718409826,"38":-0.03468176042187639,"39":0.19204255267659628,"40":0.24764332966571959,"41":-0.0371385629910741,"42":-0.2556235072108035,"43":0.1572183748852107,"44":0.09092973026349342,"45":-0.0865835868841121,"46":0.14275696085442868,"47":0.04171333520044774,"48":-0.030965978309062704,"49":0.020904182379075265,"50":0.1083882393489212,"51":-0.034175041699721756,"52":-0.009855667607920622,"53":0.037400041525003654,"54":0.0031065564986176835,"55":-0.03858020141850454,"56":0.07000450776808854,"57":0.0706819706580446,"58":-0.019069261898338217,"59":-0.056309738965129995,"60":0.11575117182720822,"61":0.016036674412864212,"62":0.015289977356358004}},{"sx":1,"sy":1,"depth":63,"w":{"0":0.03614470983297381,"1":-0.06371110321253709,"2":0.1392704680422145,"3":0.021728935410783103,"4":0.12199491078990306,"5":-0.04646752715412716,"6":0.054319893171606105,"7":0.1385913273914873,"8":0.10657774038421025,"9":-0.011201384272422411,"10":-0.22734176134503176,"11":-0.10862777815182582,"12":-0.170517035095846,"13":-0.3340292120522907,"14":-0.03871393095376148,"15":-0.1368989043545715,"16":0.11562811696590422,"17":0.11933401971686855,"18":-0.03226628614659333,"19":0.12086862351115922,"20":0.16415286607906696,"21":-0.06700796546894328,"22":-0.06361711978198303,"23":-0.009357110172004171,"24":-0.08708014226989287,"25":-0.037100374083653354,"26":-0.04563296834708422,"27":0.1999132652009562,"28":-0.13798175346691222,"29":0.23147787779190043,"30":-0.034956096558014814,"31":-0.09036986795913798,"32":-0.0795647440058133,"33":0.14024368321602285,"34":-0.07765144989271462,"35":-0.18730748427664234,"36":0.04887541674884503,"37":-0.29815480853961146,"38":-0.06427711135267346,"39":-0.13904531203296616,"40":-0.1746727964213986,"41":-0.11318622212583554,"42":0.18215219869040075,"43":-0.15147265827035225,"44":-0.2867989319609546,"45":-0.016374901167458596,"46":0.27227783864824406,"47":0.07422211829370755,"48":0.11801326244423732,"49":0.008763407189262759,"50":0.027831393024664378,"51":-0.009144106026889837,"52":-0.2334460112388279,"53":0.0555086977808975,"54":0.058607267765934015,"55":-0.02848034339721699,"56":0.08467616035302845,"57":-0.1096808848153474,"58":0.026587465148534842,"59":-0.00608985822859656,"60":-0.07984652738352709,"61":0.18642566271523187,"62":0.029331372303005008}},{"sx":1,"sy":1,"depth":63,"w":{"0":0.2038239316968114,"1":0.03209074692786093,"2":-0.11140300075687765,"3":0.24681697040562703,"4":-0.17037011290868825,"5":-0.18672046659026467,"6":0.04214934394110241,"7":-0.00290494844979653,"8":-0.17656266448152466,"9":0.15075686062688454,"10":-0.07792869778608615,"11":0.2702843152604935,"12":0.16452290087202448,"13":0.10167577790735967,"14":-0.010623353459923105,"15":0.15668968136510608,"16":-0.0928662440189206,"17":-0.2668968042598804,"18":-0.020177765733878358,"19":0.04634936945674899,"20":-0.08056904380325457,"21":-0.14790371853017922,"22":0.005226615198536532,"23":0.023038516587259368,"24":-0.16832197131436843,"25":-0.08307906486091282,"26":-0.12779774390279128,"27":0.15350062947272333,"28":-0.15812073184165976,"29":-0.010773478366372167,"30":-0.1492461453373982,"31":0.00926712350827075,"32":0.07694557025977813,"33":-0.1001718149603142,"34":-0.1537990289693702,"35":0.0053983358379352114,"36":-0.0874384101573193,"37":-0.05272618418166856,"38":0.2021469715033356,"39":-0.014071957495638245,"40":-0.01805533265786565,"41":-0.03579524671615221,"42":-0.16631387258049166,"43":-0.17971849586240357,"44":-0.07956459347409735,"45":0.05656506785699727,"46":-0.02340822170466826,"47":-0.08237401350436897,"48":0.001917189101690473,"49":-0.06944130402846187,"50":-0.27504475748895335,"51":0.008171093071231513,"52":0.19040702018949685,"53":0.08810600540100458,"54":-0.06216182505192346,"55":-0.019639374184477223,"56":-0.14317846665595393,"57":0.03911906924715666,"58":0.0919557061349368,"59":-0.025367698996253286,"60":-0.010238117546850986,"61":0.13192589704039567,"62":-0.006502119206008343}},{"sx":1,"sy":1,"depth":63,"w":{"0":0.02431083334938454,"1":0.13147052676638585,"2":-0.04499666328363957,"3":-0.14006371324641184,"4":0.0798393300404353,"5":0.006565959915378247,"6":-0.0936752309382842,"7":0.12691096091111564,"8":0.08552785190065527,"9":0.21435140810069916,"10":0.19403490877155014,"11":-0.06481720267846637,"12":-0.050058819491016815,"13":0.07879117997534153,"14":-0.1829641828362282,"15":-0.03937805425589754,"16":0.013649956945153313,"17":-0.13301411959982973,"18":-0.0158078642050655,"19":0.012689277260057604,"20":-0.005629534170079286,"21":0.18165271416000492,"22":0.08230631419036825,"23":-0.3234665152528419,"24":0.05194742811785851,"25":-0.125491838063424,"26":-0.1559134437050607,"27":-0.1509095890778527,"28":0.22372976969946812,"29":0.16743297671724966,"30":0.12119554331403894,"31":0.12335829434626319,"32":0.03467292764467491,"33":-0.07889257048147434,"34":0.09497309550144131,"35":0.047168763343592525,"36":0.037319013002523674,"37":0.046552253201897,"38":-0.07775205083558491,"39":0.08736931862852317,"40":0.07463289202924815,"41":0.20066719817239545,"42":0.13009977350198185,"43":0.10895081441191036,"44":0.0875267087829543,"45":0.0018851293597397574,"46":0.041890571486467756,"47":0.16305085449143247,"48":-0.010656426566303372,"49":0.21992754986285468,"50":0.16823789913528242,"51":-0.03465481549084902,"52":-0.12242324700195929,"53":-0.11551743178368154,"54":0.18685803569111578,"55":0.020396562990927538,"56":0.12676925832326158,"57":0.05021997495477313,"58":-0.3623869333367635,"59":0.11175541232431359,"60":0.0014900231652557215,"61":0.049961901313171964,"62":0.07265719478394812}},{"sx":1,"sy":1,"depth":63,"w":{"0":0.16853547546913988,"1":-0.005987499206937298,"2":-0.24295299805150983,"3":0.077916949031517,"4":0.10680256725209446,"5":-0.045078864634923,"6":0.0019515042772410912,"7":0.1535047474187292,"8":-0.13060892355975315,"9":0.02142859429474996,"10":0.01432468577710022,"11":-0.06390328777517051,"12":0.09199292219379916,"13":0.022493004180665518,"14":0.10101463089181172,"15":-0.1958736371805039,"16":0.11669075310082674,"17":0.1461442340352685,"18":0.03049162667121516,"19":0.04935960718716469,"20":-0.3204175241580361,"21":-0.07326582297271497,"22":-0.2184710691508221,"23":-0.06880287163852049,"24":-0.07606173349646571,"25":0.21405823352277,"26":-0.10064714598936912,"27":0.1191907956840452,"28":-0.21392594848800156,"29":-0.07404396287719393,"30":-0.1399827513728222,"31":-0.007564360488717366,"32":0.09875565568395941,"33":0.017512224854556478,"34":0.025300444836027523,"35":0.09647899913286263,"36":0.25703985423289366,"37":-0.04625407478141548,"38":0.0858639925948204,"39":-0.0654450427409349,"40":0.1192445802244728,"41":0.1304982612456702,"42":-0.08414090767506854,"43":-0.0038989963592789326,"44":0.04285632444493011,"45":-0.3107566351609267,"46":-0.061084778048746305,"47":0.158011516779252,"48":0.05478629192967505,"49":-0.006991999147131572,"50":-0.01580176323169365,"51":0.13787114025290317,"52":0.04316726145610164,"53":-0.2382508905212003,"54":-0.06076533965141222,"55":-0.09854304731576297,"56":-0.056974241124455746,"57":-0.16894911471015506,"58":0.06509630742177804,"59":0.0688686767795131,"60":-0.222351792946077,"61":-0.2820517548629819,"62":-0.35414061314500866}},{"sx":1,"sy":1,"depth":63,"w":{"0":-0.10520868426258512,"1":-0.15720188718255473,"2":0.0974101804633828,"3":0.2091590351623785,"4":-0.0419547944045153,"5":0.12090191163141245,"6":0.03189729508578996,"7":0.10571362896547913,"8":0.2111486510705972,"9":-0.11596258727242958,"10":0.09944960515207488,"11":-0.17906685041527143,"12":0.030652844548048536,"13":-0.19693324922545982,"14":-0.25242572372906924,"15":0.02699698524598818,"16":0.23065318124426892,"17":-0.19145456169950645,"18":0.015851491821807156,"19":0.021790580117156545,"20":-0.13906645031636028,"21":-0.06758775076307884,"22":-0.11519930383186916,"23":0.002484939074873052,"24":-0.35692319258504074,"25":-0.1486922287691053,"26":0.10179517731228084,"27":-0.22152943140514056,"28":0.17419402467135572,"29":-0.04365769448494999,"30":0.11214827856677452,"31":-0.06033757113284797,"32":-0.01394484511897513,"33":0.11155346429572165,"34":0.09872928238981228,"35":0.0006073324131251229,"36":0.014799224059919692,"37":0.015693097030930137,"38":-0.10774791153771357,"39":-0.07410732433444697,"40":0.08308898369967271,"41":0.10024004267501432,"42":-0.0728326136459539,"43":0.15578041554865904,"44":-0.0651901449255718,"45":-0.0767679551253261,"46":-0.07747208692062038,"47":-0.1426738106422383,"48":-0.024772551459353056,"49":0.10003658734060701,"50":0.08376102709043803,"51":0.0779219244945579,"52":-0.1703892537892658,"53":0.024159186468438912,"54":-0.06247385913399909,"55":-0.08504834748788143,"56":-0.15421310709801744,"57":0.030612466804645987,"58":0.019193753654691212,"59":-0.19873933532148375,"60":-0.03567305509748052,"61":0.12348917602189087,"62":0.1601654417142613}},{"sx":1,"sy":1,"depth":63,"w":{"0":0.08294339273203166,"1":-0.16751335090436437,"2":0.004823458757797844,"3":0.18636849449679374,"4":-0.256801877533362,"5":0.010154951319910458,"6":0.03879014081722924,"7":-0.022694150488569223,"8":-0.1362283337384493,"9":0.07771103288530329,"10":-0.2637074696833953,"11":-0.12842817021497616,"12":-0.012877502583035928,"13":-0.20956067915378462,"14":-0.03238229332720204,"15":0.026828393812636263,"16":-0.012964502749136934,"17":0.2555498363674951,"18":-0.21324115102884186,"19":0.01016169979756781,"20":0.0220745971706106,"21":0.05263592106274344,"22":-0.11055494398980505,"23":0.24042784692043,"24":0.11096241189661207,"25":-0.14071897805451114,"26":0.054344721659171986,"27":-0.043257616687800114,"28":-0.02340810846928323,"29":0.009739568744442808,"30":-0.0010197004332196003,"31":0.003417235919641781,"32":-0.17328086133138948,"33":-0.04564639783934114,"34":-0.10827510699784174,"35":-0.07366744343435003,"36":-0.12008992973719583,"37":0.08306166209608593,"38":-0.022762203189000886,"39":0.061075685769720514,"40":0.0377259356676112,"41":0.10136476745847743,"42":0.1038905525857767,"43":0.02489093219723598,"44":-0.16691007991582021,"45":0.004485072481530794,"46":0.027890419426460478,"47":0.12829312205607615,"48":0.16444283040924085,"49":-0.08251535816562534,"50":-0.001124830007101466,"51":-0.01573838765035211,"52":-0.060189787412979076,"53":-0.1999021805067328,"54":-0.10130156265298963,"55":0.03356922695474594,"56":-0.10888404171928431,"57":-0.12917805443807132,"58":-0.2152619849843169,"59":-0.08750963238039607,"60":-0.21135736459498244,"61":-0.009703939426211049,"62":0.2570994509248802}},{"sx":1,"sy":1,"depth":63,"w":{"0":0.1662215313198646,"1":0.12169388144907357,"2":0.19674818189834237,"3":-0.04698166117057318,"4":0.3044458093858077,"5":0.031285935718455796,"6":0.023299313613435,"7":0.11408855631778671,"8":0.013301877818159757,"9":-0.09885528884248908,"10":0.07933779041782393,"11":-0.07899892897501574,"12":0.1016949528584749,"13":0.12459229041553796,"14":0.07803160244017773,"15":-0.32344323126217195,"16":-0.14677955411770421,"17":-0.14847313078708022,"18":0.04230303476930133,"19":0.22013807775786307,"20":-0.05372182471703526,"21":0.26468087562653325,"22":0.061255913775727346,"23":-0.03549216384534103,"24":-0.06697008806507218,"25":0.020808943459790112,"26":-0.047801401861411394,"27":-0.23310130847727448,"28":0.011149238563102848,"29":-0.05310609274059674,"30":0.02827980575776062,"31":-0.02752120053803652,"32":-0.22833220772827284,"33":-0.02846967986610437,"34":-0.03467438265409951,"35":0.07570259694460767,"36":0.1084348646699354,"37":0.06285464115852808,"38":0.02067023775106619,"39":0.1870432217519304,"40":-0.019308330753419138,"41":0.18003964033681227,"42":-0.02856347147051088,"43":0.0920273313760967,"44":-0.17313690202193924,"45":-0.013381348235065956,"46":-0.004363487275639222,"47":0.020343330200229336,"48":-0.09889896591393023,"49":-0.03513253768586251,"50":0.02015787652382902,"51":0.12084004761704877,"52":-0.024241535393245205,"53":-0.04321464103380557,"54":-0.10652086743430511,"55":0.15433606886619053,"56":-0.06896712194842548,"57":-0.08010910334421875,"58":-0.18554842653983145,"59":0.06936915096624556,"60":-0.027881066239070655,"61":0.2763330711734328,"62":0.20797806391375714}},{"sx":1,"sy":1,"depth":63,"w":{"0":-0.20462528070905064,"1":0.09098654165901972,"2":0.127575529051783,"3":0.10171239197989912,"4":0.22948233660927692,"5":-0.04835424320853352,"6":-0.007918486205827318,"7":-0.040139520637309856,"8":0.1876580731964882,"9":-0.1832806843337965,"10":0.16725914006848336,"11":-0.057304867421341874,"12":0.02445440349741727,"13":-0.08503820037906393,"14":-0.1973555769296337,"15":0.004670971523844255,"16":0.13916003482505926,"17":-0.036001524182012294,"18":0.18973038948361906,"19":0.08915119116351021,"20":0.018272145902108416,"21":-0.11547080074362134,"22":0.20717309206738233,"23":0.07023954643525702,"24":-0.0893055375720172,"25":0.1185515976150912,"26":-0.020620755156228538,"27":-0.060532765477921004,"28":-0.08845884190580242,"29":0.07318828852737723,"30":0.031992186678312766,"31":0.03562151980851334,"32":0.042322689937589066,"33":-0.11956043328411367,"34":-0.03118947421124194,"35":0.043885763985449,"36":0.10507805997582612,"37":0.025151789451439865,"38":-0.1352771824962464,"39":0.017788437276226917,"40":0.1671935953967783,"41":0.14729988844748682,"42":0.0336209103919137,"43":0.1677943874651155,"44":-0.09941573726206815,"45":-0.008200909109249675,"46":-0.2221565709402629,"47":-0.04832374325416628,"48":-0.20902764630166992,"49":-0.09535583111397031,"50":0.15963032696014884,"51":0.06579854104686543,"52":0.0052420388167687005,"53":-0.006121235016618375,"54":0.4124112868180241,"55":0.15239765265937133,"56":-0.07905902167450897,"57":0.015266081638979447,"58":-0.24981057824365083,"59":0.04444396902417831,"60":-0.12307460726751146,"61":-0.10201072121237194,"62":0.21202131678893066}},{"sx":1,"sy":1,"depth":63,"w":{"0":-0.052493469788881864,"1":0.09710571225222712,"2":0.06569998229848634,"3":-0.058395008632548935,"4":0.11889451237385053,"5":-0.18777296493399565,"6":0.35761210757998707,"7":0.03981813399443394,"8":-0.046382418676497714,"9":-0.010764569628087419,"10":0.24588925118833874,"11":0.14405128781720122,"12":0.0983533069137196,"13":-0.0020464506252173076,"14":-0.15117511180356094,"15":0.22057857552037435,"16":0.2690962430352387,"17":-0.04914857463900851,"18":-0.029160839039124427,"19":-0.03606094728739644,"20":0.26968369636536876,"21":0.10362221565842991,"22":0.04518138768917458,"23":0.08667900660181913,"24":-0.1425838579510349,"25":0.07487599898647855,"26":0.014422018958727564,"27":0.08138539860131515,"28":0.08070624760083736,"29":-0.15140664981953153,"30":0.10617819497492718,"31":-0.13838189605613427,"32":0.3260597548569227,"33":-0.15079343285481642,"34":-0.006358240636791087,"35":0.138546918608792,"36":-0.1295247627576156,"37":-0.06778251134533501,"38":0.2300792158108247,"39":0.17426581038955338,"40":-0.07658715976730816,"41":-0.06239503251686421,"42":0.016741715397508242,"43":-0.1697479789057565,"44":0.010549057354346301,"45":-0.1545677770369798,"46":0.04279868991951231,"47":0.04224397908575919,"48":-0.02095540214743324,"49":0.04728527170729769,"50":-0.06367816002699578,"51":-0.04499210381294261,"52":0.11572756491225249,"53":0.17505260889008725,"54":0.07215594392775958,"55":-0.21627573472208433,"56":-0.09280060324181885,"57":-0.08316373553006641,"58":0.08474970419693906,"59":-0.06252581979740454,"60":0.0505387489784668,"61":0.03464736751320131,"62":0.04612861130736232}},{"sx":1,"sy":1,"depth":63,"w":{"0":-0.021285222856778186,"1":0.09775310059941193,"2":0.043504056364455104,"3":-0.09638251386357959,"4":-0.07190566389133718,"5":0.09647349857273871,"6":-0.022864203869294615,"7":-0.13420412287707081,"8":0.14726471672279004,"9":0.24336874590132243,"10":-0.08281574768567553,"11":0.039569414860412,"12":-0.16086562874191704,"13":-0.14366178724760073,"14":-0.01426480851413285,"15":-0.041798045452073135,"16":-0.26436015985653855,"17":-0.042937638075508086,"18":0.06188397115392954,"19":-0.05186026165377437,"20":-0.045919583605764466,"21":0.08009710434813057,"22":0.03189233603299038,"23":-0.10850847713266436,"24":0.0878530137251529,"25":0.09630310527222094,"26":0.08170677835383214,"27":0.0629105014243709,"28":-0.03544557831923962,"29":0.12620163863769698,"30":-0.04665432117813172,"31":0.00671867124358945,"32":-0.021654553614668757,"33":-0.0037226215472873493,"34":-0.10648368254731634,"35":0.034468061651663676,"36":0.07417020479947106,"37":-0.10147979706298964,"38":-0.05107875876206288,"39":0.02351362364246621,"40":-0.0019388040977327031,"41":-0.04814778344939369,"42":-0.17614199535940095,"43":-0.005963413631249648,"44":-0.13679981880230666,"45":-0.10604977347723421,"46":-0.1359920306965314,"47":0.005967554261964694,"48":0.10529266857143715,"49":0.2896793922947707,"50":-0.12743720586726942,"51":-0.11742861684767485,"52":0.01033716308184986,"53":-0.041073557122890875,"54":0.00823130898499064,"55":-0.11059648920429595,"56":0.1720241250586386,"57":-0.04211863960722078,"58":-0.10666279049799277,"59":0.06464250626592774,"60":-0.013657762765507217,"61":-0.19290223707637458,"62":0.02831689822502736}},{"sx":1,"sy":1,"depth":63,"w":{"0":0.0652281861591952,"1":0.1525298398348245,"2":0.051302362633245176,"3":0.06137577758002953,"4":0.06998681661701303,"5":-0.0741277253506864,"6":0.08482892460876808,"7":0.04545440734123539,"8":-0.029472153646072287,"9":0.029183355398941284,"10":0.06078537086707647,"11":0.06700171017520125,"12":-0.011197805964751638,"13":-0.14092486488819336,"14":0.13999317855916085,"15":-0.024440273989549177,"16":-0.10086895538941372,"17":-0.01364035932866983,"18":-0.14314599018598165,"19":-0.028778684080036084,"20":0.1032115537441871,"21":-0.20968783377616854,"22":0.057685914912844735,"23":0.11493226902273294,"24":0.0770088777701315,"25":0.2786665209215162,"26":-0.09422062813509467,"27":0.05328274957837771,"28":-0.1317011830547854,"29":-0.07958701561507066,"30":-0.16022452083744054,"31":-0.020573528237628678,"32":-0.11778818511321808,"33":0.43556444773428604,"34":-0.12651091016396032,"35":0.13703476231122966,"36":-0.05031182777397182,"37":0.04449765862770655,"38":-0.10414874634693844,"39":-0.03891054478028155,"40":-0.1598485695645455,"41":0.11894072982291111,"42":0.21272608358949716,"43":-0.037106664421755114,"44":0.17020879558630997,"45":0.18523131436461276,"46":-0.1361481681807539,"47":0.1423104168363058,"48":0.062218594467225476,"49":0.28552688745739085,"50":0.1234344175930383,"51":0.08217374664327745,"52":0.14761399026937733,"53":0.14388232856616648,"54":0.11966607748238353,"55":0.07113552291325341,"56":0.183449345672711,"57":0.0396430322784622,"58":-0.29328023604549797,"59":-0.01646877986816763,"60":-0.25232756309992105,"61":-0.037589169338240726,"62":-0.20242786711007665}},{"sx":1,"sy":1,"depth":63,"w":{"0":0.20431642496078073,"1":0.006049343644521063,"2":-0.25586160040921135,"3":-0.045831908007287994,"4":0.11914113036993058,"5":-0.07444544806740297,"6":-0.11106788281163611,"7":0.08730040236348292,"8":0.21008988440133533,"9":-0.15660467202824577,"10":-0.06521468221147751,"11":0.33189010498263327,"12":0.07714180602953204,"13":0.026546036702979565,"14":0.04905512947432103,"15":0.00984619852167943,"16":-0.07737118309066092,"17":-0.17770994068861776,"18":0.04672111730831851,"19":0.003250000539805333,"20":0.16225299844031124,"21":0.09583326378065679,"22":-0.11493579262887986,"23":-0.1430302484588727,"24":0.023864210647575754,"25":-0.07610722592265569,"26":-0.19017509865581247,"27":0.17265782840392538,"28":-0.07621533920915284,"29":-0.03786022998172168,"30":0.006060289473015801,"31":-0.041425737566188094,"32":-0.06669099720670095,"33":-0.025536412307722276,"34":0.07390493974739708,"35":0.09565351716780802,"36":0.034498820335419,"37":-0.057493340685009435,"38":-0.018266467435541098,"39":-0.12602155688630193,"40":-0.07183925499400755,"41":0.06449412561301213,"42":-0.000027441042130239466,"43":0.01285765568053331,"44":-0.04517841319815687,"45":0.3343514666635623,"46":0.12707963417881307,"47":0.05096960440406255,"48":0.023948786016437715,"49":0.25311754694358507,"50":0.05237417191540692,"51":0.037920317294959906,"52":0.12813979618736385,"53":-0.12566765173234887,"54":0.08242324613698446,"55":0.08836037671200264,"56":-0.1597472786127044,"57":-0.16586926877752248,"58":0.025607031341318667,"59":-0.034581617880317196,"60":-0.10611334775559038,"61":0.12547235653310304,"62":0.08142698979199768}},{"sx":1,"sy":1,"depth":63,"w":{"0":-0.32112531307800896,"1":-0.07233026856810439,"2":0.1483433262665339,"3":-0.13977707557988586,"4":0.018945531235930436,"5":-0.23946297620799473,"6":-0.10712321027231972,"7":0.09331708039202842,"8":-0.20579043905466685,"9":-0.07192139628606933,"10":0.0629043724044516,"11":0.08212561068541067,"12":-0.12748353027552264,"13":-0.013953964334964656,"14":0.22598816537801628,"15":-0.024470303537157376,"16":0.042979703963580446,"17":-0.012157684616074072,"18":-0.23505281267419662,"19":-0.06482905967299062,"20":-0.16530951517529663,"21":-0.148587183904872,"22":0.2401483753231502,"23":-0.16808873124141174,"24":-0.007425226052225849,"25":0.06633248961929974,"26":-0.012786903341554077,"27":-0.04203637631439282,"28":-0.04638043150257697,"29":-0.04908886170680707,"30":0.0031103629342104488,"31":-0.004455243022474274,"32":-0.06071733308780606,"33":-0.00016687904867542072,"34":-0.20670827094135025,"35":-0.059813165590036056,"36":0.015312843677329232,"37":-0.24223265468142047,"38":-0.0022156181574313704,"39":0.1391043381618315,"40":-0.10423874621627165,"41":-0.15010766511929372,"42":-0.31649664860452736,"43":-0.02179701070688902,"44":-0.04170601102282502,"45":-0.1453465880262969,"46":0.12202961270612607,"47":0.04970696311943677,"48":0.012957374523127117,"49":0.11441422092015688,"50":-0.020621639443286374,"51":0.11963789748954141,"52":0.19294304318041514,"53":-0.190927379119981,"54":-0.053425327016137704,"55":0.1875304777462916,"56":0.041953192289834663,"57":-0.09106418841130125,"58":-0.11285378532682114,"59":0.019051278621652793,"60":0.05298736339597676,"61":0.01960212702190633,"62":-0.18540290389448344}},{"sx":1,"sy":1,"depth":63,"w":{"0":-0.09458814327585278,"1":-0.153520360734482,"2":-0.07609712388039322,"3":-0.22005693515099306,"4":0.28339428576338516,"5":-0.0006481015208417797,"6":-0.1776866012018558,"7":0.19024143614428404,"8":0.09467277642649428,"9":-0.043241187389271254,"10":0.2990179177474422,"11":0.19366924276306768,"12":-0.20123240831230338,"13":0.08648326103747771,"14":-0.09413256070551047,"15":-0.11314472799168132,"16":0.0152006818978588,"17":0.2059155729163208,"18":-0.012970876982866595,"19":-0.003760137789849317,"20":0.09586901371767097,"21":0.12992422336415388,"22":0.092617600141475,"23":-0.10954678832081775,"24":0.05704200647387228,"25":0.14083836428337707,"26":0.0698069299537797,"27":0.02327048355583176,"28":-0.1498112186413152,"29":-0.20073665330134363,"30":0.013287589186389124,"31":-0.12022916607059057,"32":0.19475744815877866,"33":0.056402852139589094,"34":0.29745006113306405,"35":0.11080573813039522,"36":-0.09054843771007262,"37":-0.031555573899474124,"38":0.07497182148693388,"39":-0.05180883593307433,"40":0.007991147079819834,"41":-0.11200325862324619,"42":0.032440104742075676,"43":0.08653598003864377,"44":-0.1335131464355386,"45":0.017778092401335686,"46":-0.17486770911086438,"47":0.1481351925863282,"48":0.026966404351194417,"49":-0.05854716266608852,"50":-0.239764469956298,"51":0.05804990788670313,"52":-0.09253336760680585,"53":0.01831891537166572,"54":-0.1364849162461089,"55":0.06293308542758566,"56":0.08896452624256197,"57":-0.03398662442103911,"58":0.13904926012465801,"59":0.183303321302536,"60":0.04648663217145684,"61":0.02093248932053229,"62":0.2872599211322533}},{"sx":1,"sy":1,"depth":63,"w":{"0":0.17495201793458234,"1":-0.08195967744170764,"2":0.32720373660759033,"3":0.17599880799514597,"4":-0.14121922003009948,"5":-0.07864592080761687,"6":0.05955177141098546,"7":0.12501395567246232,"8":-0.0016520015677930191,"9":-0.09273141471648963,"10":-0.10331208509672309,"11":0.16257955078894867,"12":0.05396500494097719,"13":-0.07311500220597614,"14":-0.04869471884885353,"15":-0.010984847916679528,"16":-0.049834978229694155,"17":-0.20309648444540804,"18":-0.24481279959317895,"19":0.22711716449257405,"20":-0.024928023318130103,"21":0.011956462511233494,"22":-0.09299115576369445,"23":0.010540462686655675,"24":0.07836392580449163,"25":-0.058738476106159676,"26":0.08159861418792609,"27":0.1021660307225605,"28":0.007676436098451834,"29":0.07678203723767622,"30":0.03337331824390477,"31":-0.2371148646953573,"32":0.15608870603767933,"33":-0.015047322648812507,"34":0.04125356492689413,"35":0.024888080001126484,"36":0.1955205290048357,"37":-0.054110451264319,"38":0.01759766357795631,"39":0.13134265310419996,"40":0.1781051563023836,"41":-0.11566712519074823,"42":0.16459391357707756,"43":0.15007030157204612,"44":-0.11290875819302958,"45":-0.19875597449600355,"46":-0.2379912025468313,"47":0.1889147361002186,"48":0.02783477788914693,"49":0.16364641256659607,"50":0.059654143788346305,"51":0.01548894839626647,"52":0.2307523269719651,"53":-0.3317574537358666,"54":0.005166135573839968,"55":-0.006425264407559362,"56":0.07368975854796166,"57":-0.13738319806893778,"58":-0.02630777181516161,"59":0.076313837395381,"60":-0.049353660011757866,"61":-0.07920124460914409,"62":-0.02134127917288025}},{"sx":1,"sy":1,"depth":63,"w":{"0":0.20450241601100433,"1":0.16190133015005836,"2":-0.10325581849982549,"3":0.06474625204755115,"4":-0.05314159187166063,"5":0.04457880490392529,"6":0.06991424209445161,"7":0.14765670296589517,"8":-0.005904992743240355,"9":-0.09924927710056664,"10":0.16094425381200286,"11":0.1037699140167534,"12":0.0489775438281304,"13":0.4073349002506522,"14":0.09675601161615804,"15":-0.1051507639752353,"16":0.058911738585129575,"17":-0.19817783038709386,"18":-0.11983628219632458,"19":0.02132406589031847,"20":-0.08473624699604984,"21":-0.13624948334446868,"22":-0.07860637761640471,"23":-0.12834933259465783,"24":-0.06693785176590158,"25":-0.09958718592961888,"26":-0.043147293572928846,"27":0.002483961885236867,"28":0.007881023929879374,"29":0.009952473361737798,"30":-0.04366070710431955,"31":0.1352397307676523,"32":-0.0026731642344878645,"33":0.0019188592944085713,"34":-0.09392641784297062,"35":-0.0008736953763184557,"36":0.13573749278017383,"37":0.023267701531217082,"38":-0.02335363514050958,"39":-0.04302157723877894,"40":0.0339195887340593,"41":0.12412730330108028,"42":0.08480839079805721,"43":-0.20512423988107967,"44":0.07330510283188352,"45":0.015973819773979457,"46":-0.12642642287114364,"47":-0.2428270101474171,"48":0.056044690027102134,"49":-0.0850608808469286,"50":0.02563395533045174,"51":-0.01636849529324682,"52":-0.08354003796785961,"53":0.08937996441654916,"54":0.24658748278761375,"55":-0.17333513454314387,"56":-0.015925818724504746,"57":-0.1609164807190187,"58":-0.16451594218820192,"59":-0.3166421440292319,"60":0.1444349184333168,"61":-0.10848703278006133,"62":-0.24580281642811982}},{"sx":1,"sy":1,"depth":63,"w":{"0":0.060360581546675514,"1":-0.0673146458030198,"2":-0.008102491118700598,"3":-0.13626939373136857,"4":-0.046442770023622834,"5":0.04394196932690552,"6":0.19336254851457282,"7":-0.10358235366152617,"8":0.13410014668490072,"9":-0.12482249841739561,"10":0.002461519495697658,"11":0.26699491927917796,"12":-0.055994015968350054,"13":0.15781100858400737,"14":-0.04577963174672558,"15":-0.017647816166217953,"16":0.1080269990747037,"17":0.11964590196220981,"18":0.03833008461733505,"19":0.08309400678834872,"20":-0.11076584041766786,"21":-0.06500525366367499,"22":0.0891753966590323,"23":-0.15327856561945663,"24":0.0304424807286195,"25":0.06714485000433038,"26":-0.07381629860851584,"27":0.05592057392910863,"28":-0.18194858201275615,"29":-0.08799496780059095,"30":0.01207821206503519,"31":-0.008861453570178372,"32":0.15796368030316094,"33":0.02379624432345996,"34":0.04202090094898365,"35":-0.14325928039375346,"36":-0.06685206746723948,"37":0.040902283904141315,"38":0.012791025826464702,"39":0.0027666155384013023,"40":-0.0027231203981299117,"41":0.1288961877978874,"42":-0.17443080019550491,"43":0.0933867827620608,"44":-0.14424439579971168,"45":-0.04534760376133888,"46":-0.09673687850021571,"47":-0.019416000821007067,"48":0.058940437410476235,"49":0.006190583021102446,"50":0.01161846537717218,"51":-0.059996069478699066,"52":0.06255106195052919,"53":0.03854226444520762,"54":-0.07104889131125187,"55":0.05522334285449328,"56":-0.2134740933702566,"57":-0.2037839628429482,"58":0.0027302583019517316,"59":-0.05349520050298732,"60":0.02800347074574304,"61":-0.004319050828724092,"62":-0.19854477130211404}},{"sx":1,"sy":1,"depth":63,"w":{"0":-0.07591702866258906,"1":0.18172899301219236,"2":-0.07354677185943614,"3":0.17519796339505928,"4":-0.08541121955212937,"5":0.051489763619146756,"6":-0.06889217794060676,"7":0.012279765295999239,"8":-0.017098894857553705,"9":0.22244358410939563,"10":-0.025014658410346533,"11":-0.20327417023033073,"12":0.06730719778863659,"13":0.14234478843690615,"14":0.05952027594271024,"15":-0.08748546774695866,"16":-0.04669931972235246,"17":0.09353240476327221,"18":0.07471722208812706,"19":0.15644217884558656,"20":0.06844094191588122,"21":-0.2082324533661741,"22":0.005366303031682799,"23":-0.008522945618757325,"24":0.03445271934695894,"25":0.08001695354205376,"26":-0.07605854698158668,"27":-0.15001138859413116,"28":0.038442974783667004,"29":-0.031205350812015503,"30":-0.048786521121704625,"31":-0.004938230585813081,"32":-0.15266098846902112,"33":-0.084696718745559,"34":0.14554574137331514,"35":-0.012733643331825056,"36":0.08824408269161672,"37":0.02509612738322826,"38":-0.0565034456468013,"39":0.09202602617169842,"40":0.18212420401590398,"41":-0.018089954978774147,"42":-0.09339443306629702,"43":-0.12748943665894438,"44":0.1381053585402746,"45":0.2526332685814095,"46":-0.1881286225471886,"47":0.08495412700526234,"48":-0.12317595131777945,"49":0.03937799084636291,"50":-0.20845765011944317,"51":-0.04342198922918939,"52":-0.014885439797561436,"53":-0.08936782376232323,"54":0.04810439592687337,"55":-0.20665067262994988,"56":-0.03971318859604925,"57":-0.011648217422167208,"58":0.1391311429143132,"59":-0.05973210059447145,"60":-0.18678615608953716,"61":-0.035434365148317604,"62":-0.12642490069186305}},{"sx":1,"sy":1,"depth":63,"w":{"0":-0.13694592394838853,"1":-0.1674825331062317,"2":-0.024263412079548907,"3":0.010312400320782327,"4":-0.0895193501035664,"5":-0.3298495778409283,"6":0.017641258051296203,"7":-0.20063338759380234,"8":-0.06428203186044687,"9":-0.12561788325439247,"10":0.18433349268341437,"11":-0.06977291846454393,"12":-0.18526406712171956,"13":0.0297923863588685,"14":0.09527724810017993,"15":0.017736193414922285,"16":-0.029659191451818643,"17":-0.038710432529358,"18":0.04820659496042047,"19":-0.017123000430257846,"20":-0.02582365516290123,"21":0.1708420754953607,"22":0.0010818233943216805,"23":0.0033790093734426692,"24":-0.143477364083625,"25":-0.06364525977671631,"26":0.0925413440151143,"27":-0.21761457990354133,"28":0.308763316761174,"29":0.07742728606558066,"30":0.02058206331440939,"31":-0.09428575245993494,"32":-0.06626266896477107,"33":-0.03779136768557433,"34":-0.07304343268236876,"35":-0.01898283985978271,"36":-0.16591328933535032,"37":0.06898394750209047,"38":0.23138977808019195,"39":0.11910941609185739,"40":-0.022151520717095464,"41":-0.0401681895327467,"42":0.21043114588148468,"43":0.09270508487684152,"44":0.016688364131518866,"45":0.2703797091243694,"46":-0.43740092948776543,"47":0.0250274478277994,"48":-0.006614121735398953,"49":-0.09241036296922,"50":0.053995776599166434,"51":-0.04881990083109609,"52":-0.3369095629516243,"53":-0.12041101984511816,"54":-0.2227423740769139,"55":0.12013474814678442,"56":0.02505650047240218,"57":0.11538902062168918,"58":-0.03604478848095667,"59":0.1227403693262856,"60":0.11106176825452004,"61":0.01710193580317158,"62":-0.13003920504219882}},{"sx":1,"sy":1,"depth":63,"w":{"0":-0.12601647563582113,"1":-0.06196187878719517,"2":0.0000988047595116751,"3":0.003930548044703848,"4":-0.039733612800105136,"5":-0.1565802721430162,"6":0.15092754194083816,"7":0.20529118555530296,"8":-0.036537144685950325,"9":-0.11590052883787914,"10":0.26739404754065454,"11":0.12386397982836399,"12":0.038589103630320906,"13":0.08484018343749944,"14":-0.20772177124250849,"15":-0.07362989818991737,"16":-0.09633580197333398,"17":0.12251535778399301,"18":-0.005661602615448838,"19":0.2505541323504215,"20":-0.026643352049329962,"21":-0.28327571864161927,"22":0.10324382593533954,"23":-0.028568455080463413,"24":-0.006489237261534345,"25":0.05919665895542502,"26":0.1605028398379622,"27":0.04133973424464361,"28":0.11760659666366226,"29":0.15543537580787936,"30":0.21602230211192755,"31":-0.09487689972855831,"32":0.05905180251845951,"33":-0.027143661911960257,"34":0.20062985311252116,"35":0.08592634283697896,"36":0.16319899214553205,"37":0.10423652799407318,"38":0.08066677534374168,"39":0.13114658939828688,"40":-0.15987584934484877,"41":-0.08934997608327451,"42":-0.2242744484896371,"43":-0.29018362007743914,"44":0.018303606963266408,"45":0.0011162911977345303,"46":-0.0002935918159927331,"47":-0.019068428735616517,"48":-0.0048220344355266315,"49":0.10047402161236146,"50":-0.07920086087476876,"51":0.04832237450141113,"52":0.027509928062103287,"53":-0.12056489439764188,"54":-0.08322980866728912,"55":0.00048377231643738334,"56":0.16879727576525938,"57":0.019872236963795538,"58":-0.0607448310573541,"59":0.032412404786342976,"60":0.2481438742560128,"61":0.12868426274358527,"62":0.12656951283318058}},{"sx":1,"sy":1,"depth":63,"w":{"0":0.12024505560931208,"1":-0.0994034917991071,"2":-0.015394101220025828,"3":0.11718276969103669,"4":0.03536699510038343,"5":-0.074396189362099,"6":0.20084936156385935,"7":0.23727584436346863,"8":-0.18376599515683525,"9":0.033171019611291576,"10":0.09449033887182341,"11":0.02857588590002015,"12":-0.03059361232162976,"13":-0.09949504185983198,"14":-0.07634414735778176,"15":0.12361915459110108,"16":0.013078471608384962,"17":0.10110155266909798,"18":-0.023158903468302863,"19":-0.024517859187990793,"20":0.018378465045672657,"21":-0.03339416539215598,"22":0.07807121895026227,"23":0.14585099910689628,"24":-0.014723826151507283,"25":0.16596237341850537,"26":-0.07238740067321094,"27":0.15406457964155715,"28":0.27060370822989666,"29":-0.24827562421115848,"30":0.18553454512243955,"31":-0.12928652622535453,"32":0.09719144286589657,"33":-0.1125287176868849,"34":-0.22974914855178935,"35":0.1599421367909167,"36":0.12621743645426786,"37":-0.09026409916578423,"38":-0.005905772642285667,"39":-0.15380780167897407,"40":0.02067647850222269,"41":-0.10857059193366897,"42":0.06912873173546193,"43":0.16669838605208478,"44":-0.171056482761461,"45":-0.11033694379757247,"46":-0.23512126689420743,"47":0.03133403610672947,"48":-0.0154990039543079,"49":0.015243232374861524,"50":0.015682790921091632,"51":-0.01049934102654372,"52":-0.06283609427328894,"53":0.03659540603859535,"54":0.05867809159249257,"55":-0.12170713567788267,"56":0.2573835588232535,"57":0.07215545554598353,"58":0.23566296743490855,"59":0.07040936353575239,"60":-0.0709036968129323,"61":-0.09822549199660077,"62":-0.1052759182467181}},{"sx":1,"sy":1,"depth":63,"w":{"0":-0.12234907805684939,"1":0.14348050155771067,"2":0.08251009063063372,"3":-0.10322957215833031,"4":-0.012061000065422113,"5":-0.08383044858836257,"6":-0.15556838337804635,"7":-0.2749456657833839,"8":-0.1673481172316298,"9":0.05788833477783467,"10":0.029434845674536903,"11":-0.02105264859680481,"12":-0.08297523584747786,"13":-0.1117005136756085,"14":-0.26886039828798186,"15":-0.17214102963258515,"16":-0.1683881202910404,"17":0.10334700355554124,"18":-0.1607224394007761,"19":0.03730419317222412,"20":0.14264523054108508,"21":-0.06953010861846613,"22":0.03566886003606186,"23":0.051096883367185646,"24":-0.08208633436908587,"25":0.07419807542970666,"26":0.015605913436190364,"27":-0.17428382592409977,"28":-0.030197005672987835,"29":-0.08604213617223405,"30":-0.10329340373541358,"31":-0.11229367240845475,"32":-0.020538417352435025,"33":-0.07956810337208058,"34":0.11346799686165752,"35":-0.1154357945587479,"36":0.1871237632114813,"37":0.15927156515020335,"38":-0.08802930040435725,"39":0.07426031479639394,"40":0.29607745292147986,"41":0.19364383101264077,"42":0.08778921687722142,"43":-0.08835386452530214,"44":-0.04243570640294258,"45":0.21826969477439767,"46":0.10421162505551855,"47":0.023286845434390118,"48":0.16818044035831156,"49":0.2676414757744036,"50":-0.12734927291674963,"51":-0.06361330227557567,"52":-0.2904612610322842,"53":0.06314403228826604,"54":0.05395553219396417,"55":0.062183801745986415,"56":-0.09010132494346018,"57":-0.08418001315674667,"58":-0.04086684213532495,"59":-0.07364235768130255,"60":-0.05923459578129541,"61":-0.09184359388580005,"62":-0.0429008944031714}},{"sx":1,"sy":1,"depth":63,"w":{"0":-0.09972377545893571,"1":0.018077437573253297,"2":0.17485730155567855,"3":-0.08167694693535772,"4":0.10186798727138933,"5":0.0884928353652151,"6":-0.30168731867346255,"7":-0.05037406023036691,"8":-0.3569940930020844,"9":-0.07097860557971881,"10":-0.0013979369432909465,"11":-0.1105030145968222,"12":0.09913464385766937,"13":-0.17426706906865652,"14":0.1360431508248792,"15":0.018318273727128118,"16":-0.09837636327288443,"17":-0.09611777796917573,"18":-0.013074299170926888,"19":0.2349593127327517,"20":0.10759435856073932,"21":0.02787205129924382,"22":-0.022008481222027414,"23":0.1190039163223711,"24":0.0016598960498860123,"25":-0.21322915229149866,"26":-0.047791057032613396,"27":-0.09547705929622374,"28":0.01825595293862342,"29":-0.06700844038398775,"30":-0.19472240879883387,"31":0.06433012591290853,"32":-0.08293672787817852,"33":-0.19729095554540277,"34":0.004436817979517729,"35":0.17695678285581495,"36":0.06777741111910597,"37":0.10791735187345511,"38":-0.13396482763571638,"39":0.20922005085823656,"40":0.2475392795526357,"41":-0.158616480430943,"42":0.07658206285280666,"43":-0.07742023370083355,"44":0.08401872944621795,"45":-0.11200499571056144,"46":0.09149014198302775,"47":-0.01735064254329685,"48":-0.05818909748464518,"49":0.16006625209446376,"50":-0.10467870008803648,"51":0.1602535355381556,"52":0.029054075659790266,"53":0.07067679632026005,"54":-0.0476250847622896,"55":0.003132343222558989,"56":0.0955953660293956,"57":-0.009818004192128202,"58":-0.1506775154888413,"59":-0.08842260669407669,"60":-0.20262040021498204,"61":0.3256429363040698,"62":0.07506624827084113}},{"sx":1,"sy":1,"depth":63,"w":{"0":0.07538029814779074,"1":0.13248232559352824,"2":0.2146327640754918,"3":0.05588717909652768,"4":-0.08699300020792913,"5":0.041451164829732066,"6":0.08676944941352559,"7":0.05910062509817035,"8":-0.012155968342929783,"9":0.18152729595537645,"10":-0.00020316273888297616,"11":-0.10648759116118926,"12":-0.11209688885800342,"13":-0.23756654758203505,"14":0.062168223978999196,"15":-0.07378461932266935,"16":0.2217670511460565,"17":-0.05057169557616456,"18":0.01640026787121738,"19":0.040372310842456266,"20":-0.26806591132092683,"21":-0.12685629619623873,"22":0.13328014350714698,"23":0.03760362943306867,"24":-0.0762093591405004,"25":0.056169003665397135,"26":0.05963582305321537,"27":0.08300598238450216,"28":-0.08154617549113476,"29":-0.14524377892923146,"30":0.059186674091414,"31":-0.1561099880234393,"32":0.08685513654305618,"33":0.05178131039227549,"34":-0.006046802956741886,"35":-0.0468258051417629,"36":-0.010508227556531137,"37":-0.08926381124857866,"38":0.12850076979867472,"39":0.018559814596143375,"40":-0.07913482351119241,"41":-0.16658991881937504,"42":0.34875115193537926,"43":0.16064326252068095,"44":0.12708246672132753,"45":-0.0710645106261479,"46":-0.042520783742491366,"47":-0.02820907069781364,"48":0.08244978585877219,"49":0.2845541970534899,"50":0.09690738249028046,"51":0.07727584081581552,"52":0.08931731972654905,"53":-0.08560954443347395,"54":-0.25275848288021685,"55":0.15320975072202225,"56":-0.0538021748851287,"57":-0.25585191771393295,"58":0.14354307622845705,"59":0.06486249249048595,"60":0.04845997565394721,"61":-0.1501026360024911,"62":0.0743447507582034}},{"sx":1,"sy":1,"depth":63,"w":{"0":-0.02422018289538689,"1":0.0006688383240710794,"2":0.22597942900954196,"3":0.06700034442075398,"4":0.08294160321702239,"5":0.03599882259055618,"6":0.13306269223924522,"7":-0.14928456345218596,"8":0.07848584059397781,"9":0.010972684697164267,"10":0.20206856375104626,"11":0.009700137668212002,"12":-0.14480156438683786,"13":0.06285005589030332,"14":-0.09390096985567314,"15":-0.2024599319137189,"16":-0.006328995003431811,"17":-0.2403418380235425,"18":-0.08490478638097325,"19":0.09520772294453582,"20":0.08035605972007583,"21":0.08187513014656164,"22":0.0790332357865177,"23":0.02115647883141898,"24":0.06302180713870106,"25":-0.19146818715009997,"26":-0.2954619873571615,"27":0.04848020274340464,"28":-0.1577497978528243,"29":0.09943310339158616,"30":0.1462498687406777,"31":0.12373157401283928,"32":0.16126911821280707,"33":0.3056870903708469,"34":-0.23067183341534173,"35":-0.1781097661010168,"36":0.12685828506917832,"37":-0.059248802244936206,"38":0.04462871985901594,"39":0.09613323917899141,"40":0.09522885264966183,"41":-0.06983505572026052,"42":-0.2911060075841529,"43":-0.06847001897604114,"44":-0.1278416274511409,"45":-0.04375177278343222,"46":0.015153543818191069,"47":0.0782628414216068,"48":-0.036868115838932736,"49":0.15329315391273662,"50":-0.03230608286258615,"51":-0.10027431971656675,"52":-0.10319300804694713,"53":-0.0993483636172779,"54":-0.05200614130050144,"55":-0.0993299919154392,"56":0.22891865282019275,"57":-0.10652195397236466,"58":0.044115891512842724,"59":-0.105952654109745,"60":-0.00701227009412593,"61":0.08132388684352765,"62":0.13962369494967214}},{"sx":1,"sy":1,"depth":63,"w":{"0":0.04490112650682539,"1":0.055262609737817096,"2":0.22014956072014746,"3":0.16970162260860647,"4":0.03956456714156269,"5":-0.08375535116220331,"6":-0.03578127582900141,"7":0.13366621003220913,"8":-0.17789254214518962,"9":0.21620100212596227,"10":0.014318226658774906,"11":0.00708725863485068,"12":-0.05163647549910338,"13":0.06517115212476705,"14":-0.13757996058492825,"15":0.14239741459130775,"16":-0.06942258774753537,"17":-0.08500659046304522,"18":-0.21757563432219276,"19":-0.2251448602213703,"20":0.07397617464066672,"21":0.022465422568601116,"22":-0.11113483203202378,"23":-0.06464419108998144,"24":-0.23246094735908865,"25":-0.20795214183004923,"26":-0.283249839891669,"27":-0.01327240149529527,"28":-0.006234955019455229,"29":-0.032863293584516826,"30":0.10192888434064142,"31":-0.08833600432475601,"32":0.11868815848555793,"33":-0.0323379776065819,"34":0.18414247157732783,"35":-0.05844476685277968,"36":0.09375492103360472,"37":-0.20552734484329716,"38":0.13386793863273608,"39":0.3024747950031479,"40":-0.040057941342504004,"41":-0.07189717725205255,"42":0.0691878289125529,"43":0.0833078285962384,"44":-0.08347379969174676,"45":-0.06532183471153014,"46":0.2927830344392793,"47":-0.056887480992796155,"48":-0.07319896039356827,"49":0.1709687438196967,"50":-0.19539493759429785,"51":-0.15016758429271523,"52":0.29903508814711016,"53":0.11631599042188849,"54":0.28966247497611625,"55":-0.0015217723254250472,"56":-0.09934470102846146,"57":0.04511133181838057,"58":-0.059653846607513134,"59":0.11935139513015416,"60":0.05464118409070318,"61":-0.07903822336371935,"62":-0.0731603409633949}},{"sx":1,"sy":1,"depth":63,"w":{"0":0.10111124693925318,"1":0.015697832247248075,"2":-0.1717332669132834,"3":0.029543016097881736,"4":0.0011099475568251242,"5":-0.43934969381827,"6":-0.004424071783355446,"7":0.1418103842419929,"8":0.06867856612956136,"9":0.001359116366539246,"10":0.04665812632180339,"11":0.08919651168146059,"12":0.07876529559363472,"13":-0.05844525670008308,"14":-0.11223450991170639,"15":-0.1285359253925476,"16":-0.06633944873002884,"17":0.05205936711263856,"18":0.0426074286860663,"19":0.0029220285882028347,"20":0.15269757951043553,"21":0.1324153715084782,"22":-0.00947574463558859,"23":-0.0007111084872047851,"24":-0.07947800754969077,"25":-0.14863417667064036,"26":0.04650907799474349,"27":-0.10084865377526203,"28":0.043107098968559666,"29":-0.21806763771564122,"30":0.12676085729608205,"31":0.06721002064659903,"32":-0.05607461040932884,"33":-0.08561398034056225,"34":-0.018065461967772718,"35":-0.30753337781587714,"36":-0.002180757338734181,"37":-0.21366029093241642,"38":-0.10558796800804224,"39":0.0627303064609465,"40":-0.002093372323204931,"41":-0.12936220147217783,"42":-0.24497342228635977,"43":-0.02976490761563589,"44":-0.07305852243234706,"45":0.12065400624824843,"46":-0.012379572267735853,"47":0.025160299260550575,"48":-0.013141993236022654,"49":0.2639324460185247,"50":-0.01841018848002386,"51":-0.047376281108947205,"52":-0.11610092262339702,"53":-0.10771889053104171,"54":-0.015264175148489165,"55":0.12715870622321848,"56":-0.1071106509078564,"57":0.043066293694110774,"58":0.11216100708710378,"59":-0.003951822723694941,"60":-0.008065724122315359,"61":0.08744114525081294,"62":0.03270271441241637}},{"sx":1,"sy":1,"depth":63,"w":{"0":0.24701856853287077,"1":-0.007977781106389373,"2":-0.026478164476621643,"3":-0.03352452439971349,"4":-0.06890831304849362,"5":-0.0007088244814987957,"6":-0.054277556893218316,"7":-0.12933025991984748,"8":-0.07627178481002334,"9":0.15256897106303577,"10":0.09400366653872613,"11":-0.19697416001721996,"12":0.10063180372572647,"13":-0.18879627653958175,"14":0.18329181225246177,"15":-0.020654729651154863,"16":-0.01227128333001731,"17":0.11441244531523648,"18":0.09434614429907753,"19":0.016030597792875276,"20":-0.12440751304386398,"21":0.2546974734293102,"22":-0.12420435366562577,"23":-0.06044573206093024,"24":0.055147025744524444,"25":0.15208489635419023,"26":0.08578424691647978,"27":0.22633741588694076,"28":0.03641498358215584,"29":-0.1435517506670528,"30":0.09568571599625134,"31":-0.006371537153982208,"32":0.16313242235856168,"33":-0.07100911147044676,"34":-0.12127671670540156,"35":0.13695198006164824,"36":-0.15003118347889804,"37":-0.28503673880673774,"38":-0.020408017590846927,"39":-0.399018240940882,"40":0.1811566623469612,"41":-0.008707081674768094,"42":-0.07674781970782171,"43":-0.09195022265991493,"44":-0.05038498848882482,"45":-0.12849898431973358,"46":0.03536549047197412,"47":-0.10033666868656797,"48":0.015821304629501633,"49":0.08551514605484652,"50":-0.16192343222003316,"51":-0.05035189923513359,"52":0.19009172739600905,"53":0.01760755052779756,"54":-0.061675750909391716,"55":-0.1658481081408549,"56":0.07051839777694686,"57":0.039941310695222554,"58":-0.047770897162628514,"59":0.3075790756171019,"60":0.11257110368167128,"61":-0.12261166615282373,"62":0.015371193592578582}},{"sx":1,"sy":1,"depth":63,"w":{"0":-0.01996636093942421,"1":0.21916163890800214,"2":-0.01985044220648522,"3":0.1254124688516605,"4":0.21729785731509957,"5":-0.08919740134692729,"6":0.2688224212329911,"7":0.02004545433353175,"8":0.14020942496181765,"9":0.3191105983527232,"10":-0.1704679114326762,"11":-0.14612100139271406,"12":-0.1362509119403626,"13":0.0012249652467752714,"14":-0.04644669067484705,"15":-0.08400723241499575,"16":0.06721698506456791,"17":0.006310862992990396,"18":0.10090104078347363,"19":0.06857248638275727,"20":0.038242186871443797,"21":-0.08330713114522838,"22":0.00916859473898245,"23":0.04452320623758769,"24":0.15572845903674848,"25":-0.0033335026312396637,"26":0.01644244466003398,"27":0.0680837857611817,"28":-0.0009752753360687968,"29":0.037961232136010895,"30":-0.03713791875864067,"31":-0.059086595915366164,"32":0.06074897838637541,"33":0.04155261109486304,"34":-0.10298655677337767,"35":0.013890759674185462,"36":0.06516333331907664,"37":-0.007314975732114373,"38":0.10065927812537537,"39":0.11338233739569313,"40":0.13956618713238123,"41":-0.12975006005673315,"42":0.15411046810104387,"43":-0.10293027831110485,"44":-0.11473772259685244,"45":0.06850638178024761,"46":0.20239021814130503,"47":-0.2959382179005298,"48":0.08730402049130863,"49":-0.02543275616488171,"50":0.06142291485252793,"51":0.05495905883938537,"52":-0.011114217065147472,"53":-0.03429891524398489,"54":-0.20314143826421138,"55":-0.15748066037623015,"56":0.03987252458402118,"57":0.30750832715688303,"58":0.03822187300248581,"59":0.0800675982987095,"60":-0.02851699074116531,"61":0.16777289052389358,"62":0.17075044642822657}},{"sx":1,"sy":1,"depth":63,"w":{"0":0.11185731082913711,"1":-0.26937190320032045,"2":-0.10287532033893852,"3":-0.04929291506384026,"4":-0.12955297379081943,"5":-0.08006280149264657,"6":0.05631288921510586,"7":0.02966723605175476,"8":-0.054540022785268025,"9":-0.11649819130348542,"10":0.25215457870995267,"11":0.1512086500187299,"12":0.11552898443321627,"13":-0.16554109714082582,"14":0.11707944497045053,"15":-0.09207222630568991,"16":0.17543808849813183,"17":-0.29171692092998247,"18":0.1130336698937793,"19":0.13431654044413247,"20":-0.04734635003046997,"21":-0.08440038686358307,"22":-0.0355259889992904,"23":-0.111536795643237,"24":0.04017914451967192,"25":0.17324605197538911,"26":0.0404322386904811,"27":-0.1375266501831061,"28":0.010977982889510103,"29":0.009724636283776907,"30":-0.07802586186405583,"31":-0.04706405109067754,"32":0.06847541365239877,"33":0.004950430077084144,"34":-0.03304065562472018,"35":-0.12202393700504664,"36":0.07588118006994203,"37":-0.06212249384307483,"38":0.12654073361998047,"39":0.0690189730799338,"40":-0.18069304586557997,"41":-0.16680910863045634,"42":0.183291920408817,"43":-0.0976679478315259,"44":0.12550086472225142,"45":0.04252160890771684,"46":-0.09314120940943212,"47":0.021392265910212684,"48":0.23680655638297504,"49":-0.009593146331904449,"50":-0.027166651835567414,"51":0.16089394967912565,"52":-0.05740090737495427,"53":0.19858931275027358,"54":-0.05942155899855529,"55":-0.05438130599825187,"56":0.1021531952242568,"57":0.14178845855753291,"58":-0.021951054409356886,"59":-0.06666759342510828,"60":-0.2280062841580489,"61":-0.17078330152584276,"62":-0.07432619146265348}},{"sx":1,"sy":1,"depth":63,"w":{"0":0.08117745740946222,"1":-0.21040815354791326,"2":0.0014801422346468786,"3":-0.15067142450795987,"4":0.11838890017315563,"5":0.1250810187096931,"6":-0.06798335151988916,"7":-0.14111431668405194,"8":-0.11341468551459613,"9":0.072951728099469,"10":-0.0013083956120186647,"11":0.2151965433054127,"12":-0.10196393703455253,"13":-0.10821776996717963,"14":-0.06873378220590308,"15":-0.017737911546679565,"16":0.2755993685053901,"17":0.10705041433926245,"18":0.09159858952895614,"19":0.15886924888877338,"20":-0.10681296411711139,"21":0.022413762556109048,"22":0.11563784048431253,"23":0.049150870348047375,"24":-0.22622554703172523,"25":0.1282498252661969,"26":0.037060598321442345,"27":0.12977000118529325,"28":-0.11332693363066904,"29":0.15736524169287924,"30":-0.05862213453800498,"31":-0.32297072159839924,"32":-0.06489404086917741,"33":-0.14128374329311308,"34":0.012558944164003156,"35":0.27718847060699003,"36":-0.12633586089086926,"37":0.1800469918313014,"38":0.13913582548790807,"39":0.003771196948300213,"40":0.02092927409025497,"41":0.012772787320469029,"42":-0.31148267319304923,"43":-0.17211471496185138,"44":0.08465343165314011,"45":0.06535551729551134,"46":-0.043136033621483175,"47":0.23774061778901873,"48":-0.02585185495591017,"49":0.103988228150782,"50":-0.15536018971371568,"51":-0.1373532894477602,"52":0.03463648487201272,"53":0.13905144195696456,"54":-0.11593272714807192,"55":0.03175444622129455,"56":0.02921448360363012,"57":-0.16332582447915076,"58":0.021388978560343722,"59":0.0366629084995396,"60":-0.02686638624984013,"61":-0.09704407452204113,"62":0.148725187898198}},{"sx":1,"sy":1,"depth":63,"w":{"0":0.29419090910866963,"1":0.10490592987108432,"2":-0.05891022060757842,"3":0.03608125162011467,"4":-0.010280678037184738,"5":0.06749348958044118,"6":-0.08457407450550784,"7":-0.31168184916304,"8":0.36122239327588745,"9":-0.15518925414502732,"10":0.014641977042820262,"11":0.1769880911878227,"12":-0.33761653702811173,"13":0.1536284140399158,"14":0.1400699897635172,"15":-0.2699961665289427,"16":-0.07585089393040449,"17":-0.2079060518882506,"18":0.07275845960448184,"19":0.008464529193998234,"20":0.09092915729030279,"21":0.1474258144726379,"22":-0.06034637179727052,"23":0.012555375083116464,"24":0.0600482686418898,"25":-0.06549731021298044,"26":0.018818971569682486,"27":-0.00539303595379101,"28":0.1444440068792467,"29":0.0014065233597523334,"30":0.0665656551568022,"31":0.0973125749019018,"32":0.12274741321862946,"33":0.0521606988888398,"34":0.04829693504341355,"35":0.2245339022896372,"36":0.04937457236109602,"37":0.02069386432992112,"38":0.12265374054617231,"39":-0.014320761862696811,"40":-0.2826387124533516,"41":0.1394202035724177,"42":-0.12095756028663235,"43":-0.20066211486903077,"44":0.26079113922970154,"45":-0.045961616951197916,"46":0.1920765825580091,"47":-0.25662643893569215,"48":-0.03239349258163636,"49":0.06466466089659952,"50":-0.03361092027212271,"51":-0.09216532425049968,"52":0.12008674885731538,"53":0.10862634242259754,"54":0.20759476425798323,"55":0.19606746315348597,"56":-0.0556500824262773,"57":0.23214650801272826,"58":-0.13147596538392137,"59":0.09303430366491405,"60":-0.1956814260539086,"61":0.09996522341514029,"62":-0.2025679649002078}},{"sx":1,"sy":1,"depth":63,"w":{"0":-0.08420518435105617,"1":-0.1326788227574766,"2":-0.15592308147846853,"3":0.02463132542711057,"4":0.00011825770709339793,"5":-0.014079347058577463,"6":-0.07250604512114156,"7":0.04178909828917413,"8":0.23232102758352302,"9":-0.10530056330276272,"10":0.10642671937815971,"11":0.014429669066962972,"12":-0.23647906150206388,"13":-0.0032906207826143247,"14":-0.050982627319138316,"15":0.05288324418369796,"16":-0.07209614856426547,"17":-0.027280202853221407,"18":-0.1221275373749168,"19":0.09955710810693755,"20":-0.014030646102367672,"21":-0.03440583082930984,"22":0.07407669296683327,"23":-0.05394664838513854,"24":0.022085106104792817,"25":-0.1616405128832691,"26":0.14460191000590006,"27":0.23669703298790962,"28":0.1693501734959431,"29":-0.30650606622940874,"30":-0.19822974121697154,"31":-0.013992939029704802,"32":0.16021766879957325,"33":-0.11244555916537727,"34":0.054346555847513134,"35":-0.00912098451479281,"36":-0.14004912131536743,"37":0.18853813545268963,"38":0.05916467014576576,"39":-0.05568486246737223,"40":0.0550578828402355,"41":-0.10530312738590147,"42":0.03427667406570152,"43":0.05012916670769575,"44":0.11030826021736895,"45":-0.007929345991974753,"46":0.008521749277862988,"47":0.14629152177470714,"48":0.13557934675135408,"49":0.024620966164324375,"50":-0.11930354149579546,"51":-0.0579735927676821,"52":0.12333020040305022,"53":-0.009308081096499487,"54":0.040182661238670175,"55":0.10943628585128673,"56":0.06369477284084306,"57":0.01900968521403807,"58":0.19804483480302715,"59":-0.034423803327254615,"60":0.04567398827901009,"61":0.05670135943168965,"62":-0.10593361767137983}},{"sx":1,"sy":1,"depth":63,"w":{"0":0.022170191074510518,"1":0.1878246957854355,"2":0.06344094811512543,"3":0.0426510670498591,"4":-0.12124231435873929,"5":0.12397286037843583,"6":0.18885371731720405,"7":-0.10530744700829672,"8":-0.12205496223532508,"9":0.1192793997177074,"10":0.05397559164773887,"11":0.05810673176099309,"12":-0.06655835101843165,"13":-0.06963116653368875,"14":-0.00933243664322747,"15":0.08272304109608487,"16":0.06041457285281554,"17":0.09716294608645583,"18":-0.2777832127682769,"19":0.058117734212838106,"20":-0.11700073092781556,"21":-0.07879037876820848,"22":-0.09849018434208993,"23":-0.09898577532341046,"24":-0.051248937902813325,"25":-0.09880833167783029,"26":-0.12232881367080074,"27":-0.11948317119346216,"28":0.06581958089502105,"29":0.017556381445629057,"30":0.016883774708387225,"31":-0.14735427876287813,"32":-0.02365270721830551,"33":-0.15156204092426023,"34":0.1987426048753191,"35":-0.0946248384142898,"36":0.13166917627697036,"37":0.03327737632386056,"38":-0.03998643893189882,"39":-0.07607325347757946,"40":-0.036250972714032485,"41":-0.12380196988439118,"42":0.0062839659846893724,"43":0.16958102019434576,"44":-0.03184033705023841,"45":-0.07845658045984959,"46":0.14683512652913683,"47":-0.06569624007466777,"48":0.014816118026856857,"49":-0.1090301789711309,"50":-0.09418802686522222,"51":0.019322368266382402,"52":0.11167937657143108,"53":-0.047521920603102605,"54":-0.01139538052964747,"55":-0.11516164719516002,"56":-0.021661972345647103,"57":0.041191285244413726,"58":0.0951840251555957,"59":0.04057363912305544,"60":-0.010434815309825098,"61":0.04983237988476893,"62":-0.05206165990462786}},{"sx":1,"sy":1,"depth":63,"w":{"0":0.13858734685857932,"1":0.05080485120666083,"2":0.07146112165453218,"3":0.05621156489715221,"4":0.30242996921618703,"5":0.28225757031922805,"6":0.13201402637834764,"7":-0.04969200692504027,"8":0.020081511379456143,"9":-0.06045438602123854,"10":0.03040509604069372,"11":0.21846934902255372,"12":-0.2636998330961598,"13":-0.03580912217441993,"14":-0.029772453730265463,"15":0.1190960002538211,"16":-0.05545723418712405,"17":-0.11522884897539241,"18":0.05532065645283308,"19":-0.3097703767972837,"20":0.30982117817803206,"21":-0.17288412852951185,"22":-0.16213234715158006,"23":-0.13780660194481473,"24":0.0035118872436541875,"25":-0.08150317955659006,"26":0.015395465728731,"27":-0.08066673494976485,"28":0.07941122338426372,"29":0.2578557399978761,"30":-0.08140093347387428,"31":0.05797937185609462,"32":-0.1535358165844018,"33":0.02853184323538496,"34":-0.10023281718866807,"35":0.038181982426309526,"36":0.030462868286823843,"37":0.11828229738436952,"38":-0.12530018691636827,"39":-0.06088914328580451,"40":-0.11081413986076859,"41":-0.2001498413843424,"42":0.0036239610525041917,"43":-0.21922328397280016,"44":0.06146356596234588,"45":-0.0685655667604866,"46":-0.259672997965243,"47":-0.0013530284414605795,"48":0.07770918894674238,"49":0.12029897563742277,"50":-0.12678535648533723,"51":0.13300361509157022,"52":0.17288263412348448,"53":0.18179819829673405,"54":-0.0016555743904925365,"55":0.025997269415582086,"56":0.06303654805298424,"57":-0.107398171319647,"58":-0.03879454132428414,"59":0.08276370891946033,"60":-0.12829766942520596,"61":0.02060970754592671,"62":0.055121914566675936}},{"sx":1,"sy":1,"depth":63,"w":{"0":-0.3100751922547262,"1":0.028605353771377778,"2":-0.07165080640869821,"3":0.18464909168687896,"4":0.16694384998526526,"5":0.27177798244239687,"6":-0.0737353701394718,"7":0.29491737986712535,"8":-0.09401931261100796,"9":0.001761172540977985,"10":-0.13594186124971164,"11":-0.024089722215094818,"12":-0.030557537494245543,"13":0.1544502422503112,"14":-0.2152459840640202,"15":0.011696798945625827,"16":0.05698272971405172,"17":0.03380425336032781,"18":0.26346217961813445,"19":0.007123675311261919,"20":-0.1071442649234943,"21":0.03483805636135544,"22":0.0833718091554706,"23":0.02571727205489492,"24":-0.021801492727931252,"25":-0.020811925301426133,"26":0.07448090012641237,"27":0.1603501651277827,"28":-0.026165755964369545,"29":-0.1304103732603281,"30":-0.018025374869873656,"31":0.17118169231786576,"32":-0.0025240982857517406,"33":0.20807145550548448,"34":-0.17414124989996563,"35":-0.13357070450424918,"36":-0.2038752807426467,"37":0.08273152355574513,"38":-0.2031863199257678,"39":-0.031199450879951084,"40":-0.044209650066567886,"41":0.02568620677947184,"42":-0.1407714693523093,"43":0.0496555892724395,"44":-0.06321646703168456,"45":0.13829566657565032,"46":-0.14281355708371068,"47":-0.04800434678442177,"48":-0.09951846969870447,"49":0.019037420080542853,"50":-0.03423980104897612,"51":-0.012536890881986038,"52":0.13518762384542196,"53":0.0510459892469209,"54":0.050246898860884945,"55":-0.1614379671121031,"56":0.220482232959808,"57":0.38661921828218043,"58":-0.3552036410911851,"59":-0.06126917760249033,"60":0.05249911628789374,"61":-0.0560361223975952,"62":-0.20505105753663622}},{"sx":1,"sy":1,"depth":63,"w":{"0":0.22880153541343198,"1":-0.0735623647974476,"2":-0.031529011857928745,"3":0.009772460896722237,"4":0.030087966722843505,"5":0.11449499057991638,"6":-0.016896907082888313,"7":-0.06164880336222753,"8":-0.0069004614580718,"9":-0.27095768793884123,"10":-0.10394438294196551,"11":0.1391666578081984,"12":-0.2112135604123184,"13":0.23796811618905728,"14":-0.0024356912443177915,"15":0.06124819696203626,"16":0.21354559863123723,"17":0.024562695449922622,"18":-0.02330217420927404,"19":0.12472220343490706,"20":0.059997484395048435,"21":-0.030616612532320807,"22":0.06467181789749242,"23":-0.02808606996120378,"24":-0.006276196821789994,"25":0.23030824517812876,"26":-0.002573595347280739,"27":-0.2901958284484148,"28":-0.08697298389437336,"29":0.2103136329742864,"30":-0.16623242669304017,"31":-0.16178465099352352,"32":0.04110555608363013,"33":-0.05821938333353196,"34":-0.1953576552990537,"35":0.028184104965891365,"36":-0.01496164570190396,"37":0.07660207277442527,"38":-0.00189271802778729,"39":0.11894005500444879,"40":0.16724342245653526,"41":0.06870670277813068,"42":0.09844984149628778,"43":-0.014249025315238324,"44":0.24905018138645357,"45":-0.161847307581282,"46":0.10828620185667771,"47":0.020939154852410217,"48":0.21236550265002407,"49":-0.034914188865444555,"50":0.22301500954990888,"51":0.017433809233256197,"52":-0.26519266929961677,"53":0.1052852216047688,"54":-0.15803857768922094,"55":-0.06257595939582683,"56":-0.08027251025394286,"57":0.29455249628834157,"58":-0.10489483414168546,"59":0.008696836582519482,"60":-0.10213779280943976,"61":-0.13271842654639868,"62":0.06832271105427322}},{"sx":1,"sy":1,"depth":63,"w":{"0":-0.1341416159136792,"1":-0.14870028455491802,"2":0.11048719212255446,"3":0.2939467413206179,"4":-0.055502318867668814,"5":0.04312003704937057,"6":-0.03973404612586029,"7":-0.07974829835005234,"8":-0.034211149389981564,"9":0.0755988164958765,"10":0.049635708304794184,"11":-0.12774413604379276,"12":0.10146126901885334,"13":0.1024781315017112,"14":0.005776225847397954,"15":0.012897479591784904,"16":0.19876210970231586,"17":-0.22654891961075418,"18":-0.024107170942839692,"19":0.23553876625298314,"20":-0.2432943610619854,"21":0.0945453957149893,"22":-0.08246809647906785,"23":0.056703722189046145,"24":-0.14324798329593427,"25":-0.04209562050833887,"26":-0.05529112923888499,"27":0.25011778605535223,"28":0.242585922658716,"29":0.09852868019143585,"30":-0.1739942172893439,"31":-0.04699152894464676,"32":0.2517656061810868,"33":-0.10385786892958773,"34":-0.0976115808990632,"35":0.08774121189198741,"36":0.022276044041943728,"37":-0.05762244161092609,"38":0.1503148272162251,"39":-0.044279329659355764,"40":0.24625486970732177,"41":-0.041441514077595165,"42":-0.0019327661831829207,"43":0.13030167958300762,"44":0.15566774167866843,"45":-0.014251491378995635,"46":0.008595489160140177,"47":0.016705214882969242,"48":0.09116168467826455,"49":0.15664414900447607,"50":0.003919187214338644,"51":0.23520308780550322,"52":0.14928337574547998,"53":-0.18426051847155991,"54":-0.00818771729510942,"55":-0.023228403835705298,"56":-0.06156178354341959,"57":0.3495580166876336,"58":0.25687506917498404,"59":-0.0036778207151542557,"60":-0.02383680330039452,"61":-0.2354975657777139,"62":-0.013498766698421325}},{"sx":1,"sy":1,"depth":63,"w":{"0":0.1696131720253917,"1":0.00849020673847119,"2":0.11340214321592375,"3":0.06054567011680546,"4":-0.010677416186984107,"5":-0.021044696713310964,"6":-0.038959549303800384,"7":0.1474147101979842,"8":-0.019900096505763284,"9":0.27553199861152333,"10":-0.034746216447242864,"11":-0.2534226335452944,"12":0.17484183020626995,"13":-0.0035542652759413653,"14":-0.15937602829399936,"15":0.06413605500403771,"16":-0.14112774235242703,"17":0.09435307216951369,"18":-0.015920034541268863,"19":0.035344200409946874,"20":0.17712455185252082,"21":-0.004952985591337577,"22":-0.16054962265716283,"23":0.12847055155910328,"24":-0.12410468288075989,"25":0.13978377503839276,"26":0.013675449147237848,"27":-0.0964484709720053,"28":0.12483095585706859,"29":0.05808925559369328,"30":0.038468684540930186,"31":-0.02525131331371311,"32":-0.09759116385712582,"33":0.14463215375190835,"34":-0.038172776584398466,"35":0.14912898713443226,"36":0.1476978856879027,"37":-0.27838577252207014,"38":0.2979743029168182,"39":-0.07735889036394551,"40":-0.031295899076728494,"41":0.1658028026844906,"42":0.12593956554014996,"43":-0.0213780283964762,"44":0.21441730857567076,"45":0.011213059035463633,"46":0.06459071708158841,"47":0.22718382233017376,"48":-0.21430726701849148,"49":-0.1038490192331151,"50":0.20184918170092056,"51":0.06773668171995002,"52":0.0043674782285463235,"53":-0.00586744006669405,"54":-0.00374251423948279,"55":0.11248366729319387,"56":0.12578287242911937,"57":0.05434951244155157,"58":-0.16534653440760022,"59":0.2587502216041034,"60":0.07693748502513204,"61":-0.14259718252004888,"62":-0.08043912072149628}},{"sx":1,"sy":1,"depth":63,"w":{"0":-0.06961605584196418,"1":0.0298886919594386,"2":0.062263709389405654,"3":0.030178425112769646,"4":-0.17710216566762807,"5":0.060330333157556426,"6":0.15239581810649733,"7":-0.07447118066062641,"8":-0.16606822953270817,"9":0.08256470665194271,"10":0.03837670260560533,"11":0.006780981834162978,"12":0.1403562644444232,"13":0.05401239758163181,"14":0.06651778718872671,"15":-0.062001398616492086,"16":0.26013639520666126,"17":0.04164682220046361,"18":0.0034700136842405692,"19":0.04660387369311429,"20":-0.15630889765249448,"21":-0.1810230424495217,"22":-0.10454492197038182,"23":-0.02587138318028005,"24":0.2396984986427311,"25":-0.03862729935578354,"26":-0.0804409704722888,"27":0.03485428859538216,"28":-0.13638352103641233,"29":0.20613593791922433,"30":0.012744470833240162,"31":-0.027472620297388475,"32":-0.0409165216563078,"33":0.11619938914712065,"34":-0.02514647229919901,"35":0.1415784422289433,"36":0.13050782207776399,"37":0.12276320760331204,"38":-0.007512983555224829,"39":-0.26340639778987146,"40":0.022815158295213994,"41":0.04797114999374322,"42":-0.029796745670970185,"43":0.028617429845103386,"44":-0.07512303235409205,"45":0.12256936859203402,"46":-0.061409976629806115,"47":0.03776703348750231,"48":0.03954499966455972,"49":-0.1457137405319983,"50":0.17683782624710342,"51":0.05106903331313331,"52":-0.11003052809866262,"53":0.090304906139067,"54":0.025422642936761473,"55":-0.07659270010093838,"56":0.18576711161701442,"57":0.09000870964598885,"58":0.12159162200703467,"59":0.007495571925063819,"60":0.26278934736558535,"61":-0.1320063815569485,"62":-0.08183320728431258}},{"sx":1,"sy":1,"depth":63,"w":{"0":0.14240429781466168,"1":-0.09517205273222487,"2":-0.022847209604276258,"3":-0.05199802767749816,"4":-0.030840542414082815,"5":-0.2596040320779264,"6":0.11258332174469446,"7":0.07790749318925323,"8":0.12142533779762303,"9":-0.028115688573239147,"10":0.03649369603136409,"11":0.1595568824441879,"12":-0.06518801771815345,"13":-0.022692363292563897,"14":0.1606192859510519,"15":-0.023209861150716028,"16":0.07668736249693517,"17":0.0453972514598406,"18":0.04654509374598721,"19":-0.020987970298274414,"20":0.13876611009931783,"21":-0.01193884107370727,"22":-0.2083034293657115,"23":-0.03525079155111438,"24":0.20197883359293453,"25":0.022879395158538804,"26":0.18733106064641059,"27":-0.008123948569102438,"28":0.25435739428337983,"29":0.15460306480304317,"30":-0.005146694001529646,"31":0.03737234545008965,"32":0.15115927983226307,"33":0.0977464097154704,"34":-0.06419702528695369,"35":0.10759889304958727,"36":0.0075946395782473565,"37":-0.07490662471921397,"38":0.0835615057723164,"39":0.13215274750961334,"40":-0.017835407558890303,"41":0.1306421505474794,"42":0.04007669899449728,"43":-0.1664561653484805,"44":0.06839061138999426,"45":-0.04320821549362748,"46":0.1900968844768347,"47":0.052852679114746406,"48":-0.0456952812116921,"49":-0.31368641598054925,"50":0.15372392927264325,"51":0.1538246428704216,"52":-0.12531221821694613,"53":0.06984398415687897,"54":0.02149472630868389,"55":0.12992123267427103,"56":-0.08168086953939747,"57":-0.3050867444854178,"58":-0.15950750807550793,"59":-0.10364919419556338,"60":-0.1672251104875522,"61":0.07315936051726961,"62":-0.0249410169431678}},{"sx":1,"sy":1,"depth":63,"w":{"0":-0.11200441350739451,"1":-0.04937024303619344,"2":0.03740657725416626,"3":-0.17286584085257534,"4":0.08203391095947687,"5":-0.01579855860380373,"6":-0.08644923140860541,"7":0.031071086794032837,"8":0.11059548694091761,"9":0.01338245805570604,"10":-0.09170577140485342,"11":0.11637931680682864,"12":-0.18674564219438972,"13":-0.1504614899491584,"14":0.11767645310052342,"15":0.0023684829232365773,"16":0.004518797788189107,"17":-0.05470668955336996,"18":0.06603009014142712,"19":-0.11417381253664202,"20":0.11260916557360082,"21":-0.02368514982689187,"22":-0.04561079825545054,"23":-0.08506446946217908,"24":-0.008839500822475437,"25":-0.1289048835165174,"26":-0.225967009124738,"27":-0.17051998171258062,"28":0.021586811472517124,"29":-0.15580291205868207,"30":-0.06673799712735713,"31":0.12315127494067125,"32":-0.06294109749230549,"33":-0.11614551099018453,"34":0.1876697338598113,"35":-0.09542269738835077,"36":-0.14664347533518218,"37":-0.17913141140374478,"38":0.16472335496805968,"39":-0.11463304127153259,"40":-0.10013986686163705,"41":0.02210013859416065,"42":0.06770066306781995,"43":0.06480922359657677,"44":-0.03006415415315542,"45":-0.12232345962715496,"46":-0.04451453612557319,"47":-0.04265869763473351,"48":0.15781389200667317,"49":-0.2319063083759008,"50":-0.04890366274963982,"51":0.10831805210206863,"52":-0.08087409580833853,"53":-0.037476995215622554,"54":-0.06330860242665837,"55":0.014021560485071851,"56":-0.09238026026080029,"57":0.23403576879588017,"58":-0.04383765112712035,"59":-0.1976012261455678,"60":-0.09891832219017917,"61":-0.1372742980246497,"62":-0.10065561766428896}},{"sx":1,"sy":1,"depth":63,"w":{"0":-0.053359129879947106,"1":0.1481513175695146,"2":0.017209140613447027,"3":-0.03822342892232927,"4":0.06454250988540947,"5":0.06891382733931171,"6":0.05701789453215884,"7":-0.025578154514776102,"8":0.18311504649705987,"9":0.08780380059619308,"10":-0.07318284480252937,"11":0.23694722697088383,"12":-0.13377865291972027,"13":-0.04452130979027211,"14":0.0666037275872652,"15":0.05917614363033842,"16":0.05553413785038117,"17":-0.2295113331655655,"18":0.18084129328678197,"19":0.019419513545583945,"20":-0.04407067657944978,"21":-0.15275475960562443,"22":0.19892401591649034,"23":0.2313494389793142,"24":-0.001522685710253594,"25":0.008968953275303632,"26":0.0427163342714231,"27":0.05289589679471843,"28":-0.02205052621089225,"29":-0.12375258498089269,"30":-0.018750649266115093,"31":0.26618571615978803,"32":-0.01581808499280759,"33":0.11997938965754275,"34":0.09256208627878333,"35":0.1340791741711558,"36":0.07456622501185513,"37":0.2813118002621835,"38":-0.006905080916110846,"39":-0.16006826326569318,"40":0.07976774242886234,"41":-0.05464770656404609,"42":0.1517185312028617,"43":0.12140070116929402,"44":-0.006027841780270202,"45":0.09705282084063083,"46":-0.002148029817485774,"47":-0.06655101266875783,"48":-0.057011396601449986,"49":-0.0155871248009152,"50":-0.13353013019182722,"51":-0.04518835781451931,"52":0.082847553113452,"53":-0.011561055628218322,"54":-0.13181065690013002,"55":-0.21302482315430388,"56":0.1135121955418639,"57":-0.05697078130555725,"58":-0.011123513165515832,"59":0.07932330327787647,"60":-0.07701473037277709,"61":0.07323072912778394,"62":-0.04217562615293438}},{"sx":1,"sy":1,"depth":63,"w":{"0":0.1641396654009114,"1":0.10292483291751735,"2":0.18358392565029363,"3":-0.010684511801160984,"4":0.11930472745835251,"5":-0.2170997877585536,"6":0.03050197372531823,"7":-0.08201192662230827,"8":-0.07177971475101906,"9":-0.09558597514847991,"10":-0.11937946945576743,"11":-0.043251457438897654,"12":-0.24675392069272437,"13":-0.0894595326996262,"14":-0.09422178431830668,"15":-0.06038752170413899,"16":0.2622739678693845,"17":0.045203263158564454,"18":-0.02369795294797803,"19":-0.03555040204821469,"20":0.06466482624869449,"21":0.16723001645619467,"22":-0.06416136185280702,"23":0.024139739329723776,"24":0.016241601570270763,"25":0.04860766276994549,"26":0.05343243253430955,"27":-0.08817255764474094,"28":-0.044200597349746976,"29":0.14688541229426227,"30":-0.1289556965709329,"31":0.10649624153735078,"32":-0.015211148350525698,"33":0.04031289802741232,"34":0.05080370654789662,"35":-0.0736540153340859,"36":-0.03739119129648225,"37":0.06366382878698239,"38":-0.006085695989249644,"39":-0.07081211892741973,"40":-0.02907477121154122,"41":0.11917972213893804,"42":-0.15609223375410483,"43":0.014823848227668263,"44":-0.020807174158830308,"45":-0.021848108093445177,"46":0.06547177419841882,"47":0.05537359571332975,"48":0.004439974688079751,"49":-0.10227055878184309,"50":-0.1708989793182383,"51":-0.037408387052140016,"52":-0.10979713598278779,"53":-0.06830432659844816,"54":0.08959418829078308,"55":0.11802091666087142,"56":-0.04847306667187557,"57":0.04671036373257454,"58":-0.11229147019671853,"59":0.017683857408716117,"60":0.16527402456127202,"61":0.15449502559274414,"62":-0.18513242274956065}},{"sx":1,"sy":1,"depth":63,"w":{"0":-0.06024599735490348,"1":-0.19782974119184174,"2":0.12462308967186521,"3":-0.009159682633176132,"4":-0.01673138546165881,"5":-0.08435963697595394,"6":0.04172069978450346,"7":-0.09967284194398406,"8":-0.018890890979685892,"9":-0.07037471950766666,"10":-0.21541723608330407,"11":0.0466861298544497,"12":0.05931511997850073,"13":0.1495537139568643,"14":-0.017892075836454403,"15":-0.052053444789834195,"16":0.2175115791311905,"17":-0.009193924643504619,"18":0.01810481970660872,"19":-0.2424637123371136,"20":0.19966714430901325,"21":-0.015425460885412233,"22":-0.12609537892944253,"23":0.2406137577013721,"24":-0.20752510194127233,"25":0.01160534991077006,"26":0.037205556830360406,"27":-0.1438384298554613,"28":0.2060904587946619,"29":0.09600620414735211,"30":-0.11421358435904003,"31":0.09800896312971007,"32":-0.012306632355640147,"33":-0.020963374338702028,"34":0.05776090207984646,"35":0.05686332117614879,"36":-0.23283832809752578,"37":0.03988776433018764,"38":0.03846897448476294,"39":-0.1776843155459429,"40":0.12656053798872555,"41":0.15268702881290871,"42":0.011862379487986963,"43":0.034798043696287174,"44":0.2686353392139604,"45":-0.05221490179503096,"46":-0.16415422305768962,"47":-0.17261409272422498,"48":0.11217233421112426,"49":0.024726460951136946,"50":0.09160116907287738,"51":-0.06142312975847447,"52":-0.06655686960661238,"53":-0.16028092634346536,"54":0.037761746010503874,"55":-0.13475681224637104,"56":-0.012482663618252081,"57":-0.019115841600609005,"58":0.1848976790770838,"59":0.07009295797291636,"60":0.14581631779163925,"61":0.06150711536036184,"62":-0.049106542954401006}},{"sx":1,"sy":1,"depth":63,"w":{"0":-0.17271543846338855,"1":0.28562747173626524,"2":-0.02992227615189918,"3":0.06386475694068054,"4":-0.11776409011796436,"5":0.12415452474140029,"6":0.1739158737131759,"7":-0.04152063910432966,"8":0.24045738856516813,"9":0.10015970041850457,"10":0.1875379759752495,"11":0.20326165839754828,"12":0.11736022456384405,"13":0.5597716437770941,"14":0.052256657063680094,"15":-0.04807334645516826,"16":0.18111945928480883,"17":0.09076844919832684,"18":0.04525683543369651,"19":-0.016498646842521753,"20":0.06677508497700742,"21":0.10222301181960483,"22":-0.0923359041498451,"23":-0.00613655990762344,"24":-0.12024341222778004,"25":-0.16000042596771769,"26":-0.13669957018237108,"27":-0.023691236845113133,"28":-0.0684995262239443,"29":0.07447358827185759,"30":-0.023389998588156095,"31":-0.14880451276301093,"32":-0.2208596466809316,"33":0.12645758817541153,"34":0.06441752083814994,"35":0.05201610479153028,"36":-0.30763073270067565,"37":0.14824545810444711,"38":0.08680068018022664,"39":0.031466296687237175,"40":-0.14689113874504334,"41":0.08962810166641678,"42":0.12624904962244526,"43":0.0832574781767871,"44":0.19699758132364825,"45":-0.07948501494170065,"46":-0.05453963743154999,"47":0.007190574031554766,"48":0.09508451081826635,"49":0.014142077984588618,"50":0.037040875144807264,"51":0.06423280589795653,"52":0.11721166398567089,"53":0.04725081917146491,"54":0.10382793266311771,"55":0.02998133832854775,"56":0.10211279910854308,"57":-0.12025026035177987,"58":-0.06674453940332811,"59":0.07396524951709174,"60":-0.051215228795613806,"61":0.09125416443719071,"62":-0.014609328719031896}},{"sx":1,"sy":1,"depth":63,"w":{"0":-0.16402942920391472,"1":-0.19220563866657558,"2":0.26265285540395683,"3":-0.023186328777849197,"4":-0.22812441622786198,"5":0.07601466999425371,"6":-0.10956789697649066,"7":0.05040378184762412,"8":0.19152802421276366,"9":-0.10232225860130771,"10":-0.12398116625760919,"11":-0.11926727552484909,"12":0.1800597548096655,"13":0.18780193518237126,"14":-0.2398950232569659,"15":0.06062819825493113,"16":-0.20506451871149908,"17":0.15059354945675532,"18":-0.080023285835992,"19":-0.07511226730912468,"20":0.029343182938589115,"21":0.10075775656212187,"22":0.06138018713367865,"23":0.19691799792669074,"24":-0.0671070125000688,"25":0.2547302494239155,"26":0.1561202283969428,"27":-0.2431696772949798,"28":-0.23407876585408263,"29":0.08032639561200469,"30":0.17017191247602587,"31":0.009819802097136317,"32":0.12229866739699978,"33":0.04123471893611461,"34":0.10524093227321649,"35":0.18517337000216477,"36":-0.16323376001185222,"37":-0.01307106792257019,"38":-0.06820829896352767,"39":0.009409364956554818,"40":0.27118264634095074,"41":-0.07067905986083037,"42":0.06882804917025179,"43":-0.23201068672109015,"44":0.1722639079705658,"45":-0.09096062378678732,"46":-0.03158034735414006,"47":-0.08051727798152288,"48":0.03177346360604717,"49":0.12503933544357593,"50":0.04253938316350356,"51":-0.0024310970692901263,"52":-0.17337683018411124,"53":-0.02831996683809667,"54":0.04259421187780144,"55":0.14496511527655312,"56":-0.04527282026282536,"57":0.20676989950092864,"58":-0.06848751998832764,"59":-0.07233822919729607,"60":-0.2660809265092155,"61":0.016688943987230215,"62":0.227324348860282}},{"sx":1,"sy":1,"depth":63,"w":{"0":-0.2207076960256964,"1":0.04508579745159864,"2":-0.020667942020834065,"3":-0.09576202333824128,"4":-0.00010799562010037843,"5":0.10427229501471282,"6":-0.06623044392338027,"7":-0.07260911992537916,"8":-0.07372030964171876,"9":0.13985647411006943,"10":0.06488111768042623,"11":0.16346405594327706,"12":-0.000772075073794477,"13":-0.018985406702004517,"14":0.15638018208516322,"15":-0.07705877155860918,"16":0.03812076209882772,"17":0.25882591571786273,"18":0.24961927112223176,"19":-0.08578392648073635,"20":0.22924588973163093,"21":0.05310053284129702,"22":0.20990558532720865,"23":0.063174544811125,"24":0.15452885304764252,"25":-0.009990945952616296,"26":0.29725894175137707,"27":0.004441058675124658,"28":-0.3188358844394512,"29":-0.14659406907776598,"30":0.15549898030731996,"31":-0.06920335668453545,"32":0.25007100384404635,"33":-0.05151209850676652,"34":0.23074949079602808,"35":0.14796707322215225,"36":-0.011807211003897073,"37":0.009325883951177318,"38":-0.15226030960181883,"39":0.09574246819682526,"40":0.013539202427212306,"41":0.010652059954780833,"42":-0.038452974799093965,"43":-0.029485728430266474,"44":-0.04874621688050201,"45":-0.04954071655592671,"46":0.053545855137093666,"47":-0.04002563447432544,"48":0.0593239148768627,"49":0.21802323550275546,"50":0.15404836272559536,"51":0.1957230957195423,"52":-0.3029884501439503,"53":-0.10582860097907483,"54":-0.09486149028649764,"55":0.014517013374055247,"56":0.15712638218680897,"57":0.3238921031391375,"58":0.15302920203008616,"59":0.12887007232990905,"60":-0.004663395541599734,"61":0.1290092013447319,"62":-0.1476242575993174}},{"sx":1,"sy":1,"depth":63,"w":{"0":-0.10227441851682131,"1":0.004114553195047644,"2":0.036897489493841674,"3":-0.14935021882434918,"4":0.003493558964740298,"5":0.08592093135597098,"6":-0.10198831242798612,"7":0.0552302824840383,"8":0.12966318000019078,"9":0.3202060212701742,"10":0.1339245271577268,"11":0.0014179024756348158,"12":0.021713871808512916,"13":0.21120067339488938,"14":-0.3452466845352806,"15":0.18679353434822485,"16":0.13435913777833686,"17":0.055644063259569505,"18":0.1801267371618351,"19":0.12208675469688576,"20":0.13033695338191592,"21":-0.1365673011640679,"22":0.18982770732149643,"23":0.08291922257889756,"24":0.15215814740107028,"25":-0.020324001570915837,"26":0.005683324719635387,"27":-0.24065480438520842,"28":-0.006121892736073026,"29":0.07089219351038799,"30":0.17365549535725763,"31":0.09339851864920233,"32":0.06803864763945296,"33":-0.23976067325793216,"34":0.036161069971445095,"35":-0.2707256855306263,"36":0.176556787367206,"37":-0.052184394754477205,"38":0.00022281712501202562,"39":-0.006836049270345773,"40":-0.005006242933242009,"41":-0.06952605458349254,"42":-0.05915888695005676,"43":-0.09160391637038522,"44":0.028351176820189204,"45":0.0808916872335389,"46":-0.13112411460651002,"47":0.051894597928194786,"48":0.03939643502359944,"49":-0.040349307494439976,"50":-0.0006961238285792604,"51":-0.047509086923872394,"52":-0.12119199125402833,"53":0.066888181032406,"54":-0.012261912770582055,"55":0.026968352498152943,"56":-0.05135447694070079,"57":0.12553351759486114,"58":0.2735567209489105,"59":0.09066905372991758,"60":0.06227849807301383,"61":0.0025789349726488813,"62":0.006827853234135286}},{"sx":1,"sy":1,"depth":63,"w":{"0":-0.1331359149579911,"1":-0.08139340968652549,"2":-0.05141383155626894,"3":0.044156747639986164,"4":0.008057426516298538,"5":-0.04512976097335764,"6":0.01759992592234438,"7":0.20792895375215012,"8":-0.05587804891848747,"9":0.10427527795052939,"10":0.10555092386101694,"11":0.1459394945298241,"12":0.3093259407240887,"13":-0.26822048518087005,"14":-0.1451815504811883,"15":-0.26602720247824024,"16":-0.16613982732903732,"17":0.04285875554428687,"18":-0.06482945388731713,"19":0.06906002383271062,"20":0.23632483667334964,"21":-0.00869698232162044,"22":-0.06478225443629612,"23":0.17855383983713344,"24":-0.1881516957701566,"25":-0.01324452928113977,"26":-0.08162021236382674,"27":-0.025085589214934013,"28":0.1765609654278693,"29":0.05237447285060614,"30":-0.04072031426782833,"31":-0.08835156278461934,"32":-0.235461512356133,"33":0.0017614424545453358,"34":-0.0012237030621326348,"35":-0.009249398875725965,"36":-0.13198047999464585,"37":-0.06042116238926719,"38":-0.0544672223226888,"39":0.06510808590248894,"40":0.028896204532872435,"41":0.09328321263329198,"42":0.20939727986949214,"43":-0.04521580249868623,"44":-0.05185385583814458,"45":-0.1484171279234168,"46":-0.10092702195676528,"47":-0.2310752317133146,"48":-0.09532262491441425,"49":-0.2647399138264694,"50":-0.10435213424190168,"51":-0.23560634763532054,"52":0.04180912077401045,"53":-0.016356081197727253,"54":0.041994615249208854,"55":0.016068075075268962,"56":-0.06252496542695948,"57":-0.09815497298978455,"58":-0.08555622132200195,"59":0.262802915634034,"60":0.19335743259670035,"61":-0.07196668453683684,"62":-0.15962917675078925}},{"sx":1,"sy":1,"depth":63,"w":{"0":0.1426148618821074,"1":0.2252351232621682,"2":-0.10606139936918958,"3":-0.046752373991963636,"4":0.13349959418845764,"5":0.027119858761066092,"6":0.041724980960938796,"7":-0.18069826360373634,"8":0.1804967829468089,"9":0.02948227809597616,"10":0.1252477138484845,"11":0.06904669532384318,"12":-0.23507229809663946,"13":0.1756856984793759,"14":-0.17632665485903956,"15":0.12585375506187235,"16":0.06647795273065113,"17":-0.10187257491097465,"18":-0.021581888682541243,"19":-0.005824962131822871,"20":-0.023851781917687182,"21":-0.08894217100383596,"22":-0.27232969216613184,"23":0.10024762784705145,"24":0.33970637859169506,"25":0.27490923143548707,"26":0.032627879600798784,"27":0.040911328944094605,"28":-0.05252893582538093,"29":0.0006299493660928081,"30":-0.13828957834104513,"31":0.26435205829431013,"32":0.1873466327940836,"33":0.2273330889367026,"34":0.24608321893771284,"35":0.11889160196950993,"36":0.054726704038733795,"37":0.14853941833889525,"38":-0.14704265302100228,"39":0.054339054691160314,"40":-0.0055026209386853635,"41":0.08380502369928688,"42":-0.15593823519562994,"43":0.006690935101090846,"44":0.03468133028879482,"45":0.08314547738632706,"46":-0.054629407324911304,"47":0.10082474971760154,"48":-0.1601143236419303,"49":-0.07509892116818932,"50":0.0321208852739842,"51":-0.08390941337558276,"52":0.017998083371234545,"53":0.08356725095927879,"54":0.1391161332704255,"55":0.1168023419484045,"56":-0.02207756465054026,"57":0.015060875357397864,"58":-0.04925986342959272,"59":-0.06909056988187345,"60":0.20416269058318634,"61":-0.19720191585261204,"62":0.03150643076420671}},{"sx":1,"sy":1,"depth":63,"w":{"0":-0.13267462592790555,"1":-0.08732935219019591,"2":0.0391452626674144,"3":0.16015084343989372,"4":0.031812861277695795,"5":0.01100062372155357,"6":-0.18343286124160055,"7":0.01302815958827477,"8":-0.049733118028846404,"9":-0.007637087377824628,"10":-0.08672026915727626,"11":0.02298897991796901,"12":-0.08937985946028659,"13":0.023755345031202305,"14":0.054250977773287315,"15":-0.008486775737525393,"16":0.026963416369032794,"17":0.038593741730340844,"18":-0.1203655413919406,"19":-0.18303764796969885,"20":0.1470833006306503,"21":0.07338453442195547,"22":0.19119265831984575,"23":-0.010050015950717367,"24":-0.028421937025736314,"25":-0.1079407382541652,"26":0.19941541689965184,"27":0.11017179071828255,"28":0.09934346196728515,"29":-0.01059583163068535,"30":-0.05632222677049039,"31":0.015578537707195682,"32":-0.08887649043467406,"33":-0.06355075230791464,"34":0.10793438172085308,"35":0.13932650026749113,"36":0.2780671979906826,"37":-0.21706005030377287,"38":-0.1438977973984534,"39":0.01582855333572003,"40":-0.0017257313908422118,"41":-0.25051713651206703,"42":0.059647350205166455,"43":0.08683600421946804,"44":0.13701317364489396,"45":0.10952709363882232,"46":-0.03287507351511401,"47":0.1160837850907833,"48":0.24580963779873516,"49":-0.1687801061499859,"50":-0.2742132033052564,"51":0.07845314139553124,"52":-0.07997113987146812,"53":0.18811184700494224,"54":0.2812249698235987,"55":0.01346929303783814,"56":0.06924830360267302,"57":-0.138285642599938,"58":0.12135584585729829,"59":0.15451608435596081,"60":-0.24480534687638722,"61":0.10449409102218736,"62":-0.060426179491474816}},{"sx":1,"sy":1,"depth":63,"w":{"0":-0.03825778819128006,"1":0.06964364011423059,"2":-0.1114720349878417,"3":0.08879945808039828,"4":-0.07782866423019609,"5":0.11429525270268341,"6":0.13442051723930626,"7":0.1873738661288728,"8":0.16123233762069594,"9":-0.1591164553986042,"10":-0.11807560595230136,"11":-0.1466320990374562,"12":0.22981962977484915,"13":-0.06091515493031569,"14":-0.13189400197523954,"15":0.18697497381208533,"16":-0.020726687001230128,"17":0.06303389914965722,"18":0.05042887347026628,"19":-0.11638642843805826,"20":0.14530510435236987,"21":-0.11269354514866874,"22":-0.11671409170984662,"23":0.11193431278255196,"24":0.03300953176914304,"25":-0.03440633911574472,"26":-0.13718109502209155,"27":0.10274658952435506,"28":0.06544381119837443,"29":-0.11328863599045924,"30":-0.061454795055727034,"31":0.0408878138095611,"32":-0.05777105303243047,"33":0.2097625224894081,"34":-0.08100226397468634,"35":-0.019162351040193454,"36":0.07812465767976452,"37":-0.026789541533898776,"38":-0.07867334752788933,"39":0.005796532686004583,"40":-0.03700376644085347,"41":-0.30080317271066753,"42":0.16753253630001785,"43":-0.16438462115705846,"44":-0.015702386499294473,"45":-0.006408714280726978,"46":0.03827881969684634,"47":-0.08965905735851218,"48":-0.03486621006741127,"49":-0.08818693304751889,"50":0.1523369036140732,"51":0.03498143175001072,"52":0.11626820178563345,"53":-0.07284814752348848,"54":0.1915755422746912,"55":0.043431581216034,"56":0.05401505361877501,"57":0.004771895065570954,"58":0.06750973101375857,"59":0.09995564148997657,"60":-0.1260718301689787,"61":0.062823646677588,"62":-0.09373801069453834}},{"sx":1,"sy":1,"depth":63,"w":{"0":-0.013566909216124958,"1":0.0490257687308255,"2":0.03605253713332356,"3":-0.014755503012104435,"4":-0.15856207424761692,"5":0.0891951467449153,"6":-0.13266583627021283,"7":0.1834813015108775,"8":-0.15459020035973897,"9":-0.004442136571966337,"10":-0.08418704936077133,"11":0.21120911190982314,"12":-0.20177078239062174,"13":0.023825417055245435,"14":-0.14925301366487173,"15":-0.23827400443455665,"16":0.01408462752565468,"17":0.10491425018095209,"18":-0.019317383671769654,"19":-0.006952110611209938,"20":-0.006355766253975907,"21":0.14418351282578745,"22":0.023896582797064303,"23":0.17752781125519024,"24":0.06501773420124188,"25":0.07002307397463797,"26":-0.048154124407655645,"27":0.341682883666593,"28":-0.09177663147204325,"29":0.08415127305755177,"30":-0.2172177450486652,"31":0.0004872001301997251,"32":-0.09139576180334132,"33":0.2590248690092997,"34":-0.20636643154592285,"35":0.04684602626243023,"36":-0.08345471614352523,"37":0.04261684633570729,"38":-0.2707610386873935,"39":0.03466683928085874,"40":0.019759145260141758,"41":0.022011636720801628,"42":-0.054806851583270415,"43":0.15464394568666914,"44":-0.0910499834065582,"45":-0.03812679465307003,"46":-0.05971649862276441,"47":-0.11100776175672795,"48":0.2413999204072338,"49":-0.1341775206138103,"50":-0.14369354848769522,"51":0.08347786998364248,"52":0.026999725057730267,"53":-0.24949822226659885,"54":-0.16471759502751482,"55":0.07699678180060056,"56":0.01834246234505213,"57":0.047767620125160996,"58":-0.054770086439681724,"59":0.11590202054825896,"60":-0.23120597301923507,"61":0.25590320063565736,"62":0.09340859237067295}},{"sx":1,"sy":1,"depth":63,"w":{"0":-0.10006716094725349,"1":0.09950385409411516,"2":-0.08304871528916616,"3":-0.027658050039072533,"4":0.2065167338366443,"5":-0.07514441219239862,"6":0.14608626662138272,"7":-0.19766956900259675,"8":-0.010654327319857066,"9":-0.010733656080047784,"10":0.06597741246675819,"11":-0.040838338263094305,"12":0.06341316035911078,"13":-0.014504695113011152,"14":0.06752673863309462,"15":0.23774601596360362,"16":-0.04762871281344003,"17":0.030778152080141504,"18":0.024044338454750475,"19":0.21811962291315853,"20":-0.05972320857431246,"21":-0.05558045569048256,"22":-0.04389039461462576,"23":-0.015673761590829838,"24":0.0636218478550815,"25":0.18829644345488164,"26":0.07914572587696214,"27":-0.09535036084360603,"28":0.02090581638508308,"29":0.015623605974052334,"30":-0.09637979924420738,"31":-0.0656034170163367,"32":0.12468092291419375,"33":0.1115141870554754,"34":0.06038624411361502,"35":0.05385607215905646,"36":0.0019642285843795597,"37":-0.03471351480957361,"38":0.008325460667255303,"39":-0.10060504875615645,"40":0.17311231219882667,"41":-0.15801277910917255,"42":-0.16414614874212785,"43":-0.05243147638158295,"44":-0.07264912887334259,"45":0.1767645184572513,"46":0.006946098708629499,"47":-0.08560758318943668,"48":0.06644264977906424,"49":0.18420486059971225,"50":-0.007085617777016406,"51":-0.1945026542326846,"52":0.25585456285539704,"53":0.004860773559421869,"54":-0.18186837544798143,"55":-0.10535189261091321,"56":-0.05528236354115802,"57":0.0706482932957696,"58":0.09518536494238101,"59":0.04506840153871742,"60":-0.1911358157720156,"61":0.06273125179480495,"62":0.16628148921310199}},{"sx":1,"sy":1,"depth":63,"w":{"0":-0.10073605908365088,"1":-0.08687822496281701,"2":0.12292705869656438,"3":-0.00010394331049847116,"4":-0.05575965674524541,"5":-0.23047027723919022,"6":0.021205515432348238,"7":0.3001365212830356,"8":-0.04682391075595611,"9":0.1227928169653394,"10":-0.062800124472526,"11":-0.11394762273419039,"12":-0.061896888752055124,"13":0.009110457931377755,"14":-0.06621899246807751,"15":-0.15469306693136353,"16":-0.16276470200357213,"17":0.018949148149273412,"18":-0.023977780051522582,"19":0.049174088702159766,"20":0.26118940353989845,"21":0.13251562805943828,"22":-0.018469546658121262,"23":0.3053365402326413,"24":-0.05266136757961238,"25":0.03823537952160663,"26":-0.13860658742868068,"27":0.11167050977089941,"28":-0.3543268479654188,"29":0.1876327702439285,"30":0.10204791161670758,"31":-0.08898558220871504,"32":0.02540595432523547,"33":-0.06076073224231656,"34":-0.024787571629395787,"35":-0.09453953409476956,"36":0.10174335020575927,"37":-0.26307528712558653,"38":0.04704310494334931,"39":0.2397909014007165,"40":-0.10494413496121076,"41":0.04928145726638609,"42":0.05637818617901483,"43":0.13295600354302042,"44":0.011526109589352105,"45":0.09772439700291495,"46":-0.14662732076167917,"47":-0.0503497174224773,"48":0.01769010810527671,"49":0.004956698552843185,"50":0.23808272813367568,"51":0.1701114555739529,"52":-0.12419870483516067,"53":0.0640628725581052,"54":0.17570130589994157,"55":-0.1667822685589562,"56":0.06455790973692001,"57":0.1706650347950914,"58":-0.2615481277152542,"59":-0.06619762836924051,"60":0.006667274860484595,"61":0.12495689636885347,"62":-0.0011477289345949106}},{"sx":1,"sy":1,"depth":63,"w":{"0":-0.0029512749204547387,"1":0.2770666699738778,"2":0.12455541823248387,"3":-0.23258335254685106,"4":0.07557316878870032,"5":-0.03466841899295951,"6":-0.02812747373316238,"7":0.18129726109137828,"8":0.05685725084840173,"9":-0.026565989380518993,"10":0.043244391635921135,"11":-0.12609969757701958,"12":0.1577375676218667,"13":-0.055438064220847835,"14":0.015930706448775634,"15":0.29145846345592097,"16":-0.11115368472270477,"17":-0.022243734738666053,"18":-0.16543678250271765,"19":0.4146030789420656,"20":0.01569192082252012,"21":0.013443635979210637,"22":-0.21368698939262287,"23":0.06463029248110372,"24":-0.16547234167833919,"25":-0.0668234532098635,"26":0.29995621051765986,"27":-0.035069691925368844,"28":0.15953664444372015,"29":0.13676313615567043,"30":0.13823577013342792,"31":-0.2586484335968387,"32":0.03665727273826069,"33":0.035372531630715166,"34":0.016638947235603985,"35":-0.06101217959221585,"36":0.0885052468531468,"37":0.018810796572070944,"38":-0.18442703671044966,"39":0.23377922971458887,"40":-0.16408221439055795,"41":0.22729295373927172,"42":0.009289261071586077,"43":-0.126625872284066,"44":0.0698127974848572,"45":-0.09795746164939298,"46":-0.3166079166778853,"47":0.22343551783383547,"48":0.010343890985319312,"49":0.021800608516646582,"50":0.04209887931101594,"51":0.12497638666378012,"52":-0.029700239419611415,"53":-0.011729620079600196,"54":0.06583810114620366,"55":0.08488292603621249,"56":-0.16191654330019536,"57":-0.004795711119369553,"58":0.27724306292913503,"59":0.028579532437554057,"60":-0.032603711951883975,"61":0.07191996347444883,"62":-0.0015566000561259927}},{"sx":1,"sy":1,"depth":63,"w":{"0":0.029439680719756313,"1":-0.08222510399316893,"2":0.09963728986293839,"3":0.08150989026342782,"4":0.15146612343526905,"5":-0.06461960201946841,"6":-0.023590971968489003,"7":0.14933745848217528,"8":-0.1532220751500482,"9":-0.11300744417973357,"10":-0.0409323783038636,"11":0.2214778602968126,"12":0.06578849088225336,